{"learner":{"attributes":{"best_iteration":"448","best_score":"0.5258206167218903","scikit_learn":"{\"_estimator_type\": \"regressor\"}"},"feature_names":[],"feature_types":[],"gradient_booster":{"model":{"gbtree_model_param":{"num_parallel_tree":"1","num_trees":"489"},"iteration_indptr":[0,1,2,3,4,5,6,7,8,9,10,11,12,13,14,15,16,17,18,19,20,21,22,23,24,25,26,27,28,29,30,31,32,33,34,35,36,37,38,39,40,41,42,43,44,45,46,47,48,49,50,51,52,53,54,55,56,57,58,59,60,61,62,63,64,65,66,67,68,69,70,71,72,73,74,75,76,77,78,79,80,81,82,83,84,85,86,87,88,89,90,91,92,93,94,95,96,97,98,99,100,101,102,103,104,105,106,107,108,109,110,111,112,113,114,115,116,117,118,119,120,121,122,123,124,125,126,127,128,129,130,131,132,133,134,135,136,137,138,139,140,141,142,143,144,145,146,147,148,149,150,151,152,153,154,155,156,157,158,159,160,161,162,163,164,165,166,167,168,169,170,171,172,173,174,175,176,177,178,179,180,181,182,183,184,185,186,187,188,189,190,191,192,193,194,195,196,197,198,199,200,201,202,203,204,205,206,207,208,209,210,211,212,213,214,215,216,217,218,219,220,221,222,223,224,225,226,227,228,229,230,231,232,233,234,235,236,237,238,239,240,241,242,243,244,245,246,247,248,249,250,251,252,253,254,255,256,257,258,259,260,261,262,263,264,265,266,267,268,269,270,271,272,273,274,275,276,277,278,279,280,281,282,283,284,285,286,287,288,289,290,291,292,293,294,295,296,297,298,299,300,301,302,303,304,305,306,307,308,309,310,311,312,313,314,315,316,317,318,319,320,321,322,323,324,325,326,327,328,329,330,331,332,333,334,335,336,337,338,339,340,341,342,343,344,345,346,347,348,349,350,351,352,353,354,355,356,357,358,359,360,361,362,363,364,365,366,367,368,369,370,371,372,373,374,375,376,377,378,379,380,381,382,383,384,385,386,387,388,389,390,391,392,393,394,395,396,397,398,399,400,401,402,403,404,405,406,407,408,409,410,411,412,413,414,415,416,417,418,419,420,421,422,423,424,425,426,427,428,429,430,431,432,433,434,435,436,437,438,439,440,441,442,443,444,445,446,447,448,449,450,451,452,453,454,455,456,457,458,459,460,461,462,463,464,465,466,467,468,469,470,471,472,473,474,475,476,477,478,479,480,481,482,483,484,485,486,487,488,489],"tree_info":[0,0,0,0,0,0,0,0,0,0,0,0,0,0,0,0,0,0,0,0,0,0,0,0,0,0,0,0,0,0,0,0,0,0,0,0,0,0,0,0,0,0,0,0,0,0,0,0,0,0,0,0,0,0,0,0,0,0,0,0,0,0,0,0,0,0,0,0,0,0,0,0,0,0,0,0,0,0,0,0,0,0,0,0,0,0,0,0,0,0,0,0,0,0,0,0,0,0,0,0,0,0,0,0,0,0,0,0,0,0,0,0,0,0,0,0,0,0,0,0,0,0,0,0,0,0,0,0,0,0,0,0,0,0,0,0,0,0,0,0,0,0,0,0,0,0,0,0,0,0,0,0,0,0,0,0,0,0,0,0,0,0,0,0,0,0,0,0,0,0,0,0,0,0,0,0,0,0,0,0,0,0,0,0,0,0,0,0,0,0,0,0,0,0,0,0,0,0,0,0,0,0,0,0,0,0,0,0,0,0,0,0,0,0,0,0,0,0,0,0,0,0,0,0,0,0,0,0,0,0,0,0,0,0,0,0,0,0,0,0,0,0,0,0,0,0,0,0,0,0,0,0,0,0,0,0,0,0,0,0,0,0,0,0,0,0,0,0,0,0,0,0,0,0,0,0,0,0,0,0,0,0,0,0,0,0,0,0,0,0,0,0,0,0,0,0,0,0,0,0,0,0,0,0,0,0,0,0,0,0,0,0,0,0,0,0,0,0,0,0,0,0,0,0,0,0,0,0,0,0,0,0,0,0,0,0,0,0,0,0,0,0,0,0,0,0,0,0,0,0,0,0,0,0,0,0,0,0,0,0,0,0,0,0,0,0,0,0,0,0,0,0,0,0,0,0,0,0,0,0,0,0,0,0,0,0,0,0,0,0,0,0,0,0,0,0,0,0,0,0,0,0,0,0,0,0,0,0,0,0,0,0,0,0,0,0,0,0,0,0,0,0,0,0,0,0,0,0,0,0,0,0,0,0,0,0,0,0,0,0,0,0,0,0,0,0,0,0,0,0,0,0,0,0,0,0,0,0,0,0,0,0,0,0,0,0,0,0,0,0,0,0,0,0,0,0,0,0,0,0,0,0,0,0,0,0,0,0,0],"trees":[{"base_weights":[1.3827316E-2,-5.3270096E-1,1.1833155E0,-1.5512123E0,-2.108264E-1,7.880222E-1,1.8942211E0,-1.8553678E0,-7.607446E-1,-5.083339E-1,1.0141985E-1,3.6014897E-1,1.074507E0,1.6369683E0,2.4399364E0,-2.2169719E0,-1.4210209E0,-1.4118294E0,-5.0940156E-1,-6.613503E-1,-6.9862224E-2,-8.012448E-2,9.204198E-1,-4.2884505E-1,4.6758896E-1,8.116117E-1,1.3258734E0,1.0423172E0,1.7690953E0,2.3784533E-2,2.4788015E0,-7.906274E-2,-5.7996955E-2,-3.3625744E-2,-5.656142E-2,-4.9327675E-2,-3.1146139E-2,-2.6202342E-2,-4.5253388E-3,-2.552387E-2,-8.838805E-3,2.711326E-3,-3.1304672E-2,1.2484484E-3,-2.081302E-2,4.1222665E-2,8.759704E-3,-3.4128834E-2,-9.181191E-3,6.680313E-3,2.2772923E-2,2.018167E-2,3.640471E-2,3.531017E-2,5.0049085E-2,6.551537E-3,3.539743E-2,4.860929E-2,6.168346E-2,6.670915E-2,8.1992365E-2],"categories":[],"categories_nodes":[],"categories_segments":[],"categories_sizes":[],"default_left":[0,0,0,0,0,0,0,0,0,0,0,0,0,0,0,0,0,0,0,0,0,0,0,0,0,0,0,0,0,0,0,0,0,0,0,0,0,0,0,0,0,0,0,0,0,0,0,0,0,0,0,0,0,0,0,0,0,0,0,0,0],"id":0,"left_children":[1,3,5,7,9,11,13,15,17,19,21,23,25,27,29,31,33,35,37,39,41,43,45,47,49,51,53,55,57,-1,59,-1,-1,-1,-1,-1,-1,-1,-1,-1,-1,-1,-1,-1,-1,-1,-1,-1,-1,-1,-1,-1,-1,-1,-1,-1,-1,-1,-1,-1,-1],"loss_changes":[4.475055E3,1.5625559E3,6.223396E2,2.7115552E2,3.373318E2,1.7465503E2,1.0158081E2,1.21456055E2,5.0294907E1,1.24268555E2,2.638884E2,4.9586746E1,5.3544434E1,3.788379E1,1.04375E1,4.048047E1,4.7375427E1,2.8865662E0,3.002668E1,9.4591736E1,7.617582E1,1.087801E2,9.016641E1,4.6748085E0,3.5724724E1,2.1202118E1,1.6825012E1,1.0689438E1,1.0459473E1,0E0,1.1333008E0,0E0,0E0,0E0,0E0,0E0,0E0,0E0,0E0,0E0,0E0,0E0,0E0,0E0,0E0,0E0,0E0,0E0,0E0,0E0,0E0,0E0,0E0,0E0,0E0,0E0,0E0,0E0,0E0,0E0,0E0],"parents":[2147483647,0,0,1,1,2,2,3,3,4,4,5,5,6,6,7,7,8,8,9,9,10,10,11,11,12,12,13,13,14,14,15,15,16,16,17,17,18,18,19,19,20,20,21,21,22,22,23,23,24,24,25,25,26,26,27,27,28,28,30,30],"right_children":[2,4,6,8,10,12,14,16,18,20,22,24,26,28,30,32,34,36,38,40,42,44,46,48,50,52,54,56,58,-1,60,-1,-1,-1,-1,-1,-1,-1,-1,-1,-1,-1,-1,-1,-1,-1,-1,-1,-1,-1,-1,-1,-1,-1,-1,-1,-1,-1,-1,-1,-1],"split_conditions":[1.5573369E1,5.263158E-2,1.6603603E1,1.4077875E1,2.625E1,-1.333E1,1.7312017E1,5.29E2,-4.615E1,-3E0,5.9E1,-5.833E1,1.6023785E1,-2.857E1,-5.429E1,-8E0,1E0,1.484513E1,1.486283E1,1.464842E1,1.089E3,1.024E3,1.0126671E1,-8.182E1,1.6077274E1,3.514E1,3.043E1,-6.25E1,1.2E1,2.3784533E-2,1.7717484E1,-7.906274E-2,-5.7996955E-2,-3.3625744E-2,-5.656142E-2,-4.9327675E-2,-3.1146139E-2,-2.6202342E-2,-4.5253388E-3,-2.552387E-2,-8.838805E-3,2.711326E-3,-3.1304672E-2,1.2484484E-3,-2.081302E-2,4.1222665E-2,8.759704E-3,-3.4128834E-2,-9.181191E-3,6.680313E-3,2.2772923E-2,2.018167E-2,3.640471E-2,3.531017E-2,5.0049085E-2,6.551537E-3,3.539743E-2,4.860929E-2,6.168346E-2,6.670915E-2,8.1992365E-2],"split_indices":[0,25,0,0,21,29,0,3,29,30,24,29,0,29,29,30,38,0,0,0,3,3,0,29,0,29,29,29,29,0,0,0,0,0,0,0,0,0,0,0,0,0,0,0,0,0,0,0,0,0,0,0,0,0,0,0,0,0,0,0,0],"split_type":[0,0,0,0,0,0,0,0,0,0,0,0,0,0,0,0,0,0,0,0,0,0,0,0,0,0,0,0,0,0,0,0,0,0,0,0,0,0,0,0,0,0,0,0,0,0,0,0,0,0,0,0,0,0,0,0,0,0,0,0,0],"sum_hessian":[6.997E3,4.769E3,2.228E3,1.143E3,3.626E3,1.435E3,7.93E2,8.23E2,3.2E2,1.857E3,1.769E3,5.78E2,8.57E2,5.45E2,2.48E2,4.44E2,3.79E2,8.6E1,2.34E2,1.375E3,4.82E2,1.449E3,3.2E2,6.8E1,5.1E2,4.24E2,4.33E2,1.03E2,4.42E2,7E0,2.41E2,1.72E2,2.72E2,2.35E2,1.44E2,4.8E1,3.8E1,1.14E2,1.2E2,9.04E2,4.71E2,4.15E2,6.7E1,1.21E3,2.39E2,1.84E2,1.36E2,7E0,6.1E1,2.8E2,2.3E2,3.2E2,1.04E2,3.09E2,1.24E2,1.6E1,8.7E1,3.01E2,1.41E2,1.31E2,1.1E2],"tree_param":{"num_deleted":"0","num_feature":"41","num_nodes":"61","size_leaf_vector":"1"}},{"base_weights":[-8.400043E-3,-5.1899457E-1,1.137697E0,-1.4709384E0,-1.7819193E-1,7.796828E-1,1.8848723E0,-1.763145E0,-7.28687E-1,-3.2194757E-1,4.7068697E-1,3.678778E-1,1.0453334E0,1.6253151E0,2.3869221E0,-2.12226E0,-1.3849623E0,-1.3582388E0,-5.0408775E-1,-5.212503E-1,-1.51752625E-2,9.3928206E-1,6.2314463E-3,-1.7939809E-1,5.2064705E-1,7.897147E-1,1.2767425E0,1.0698935E0,1.7373259E0,2.1194035E-2,2.4225981E0,-6.792249E-2,-4.909535E-2,-4.463089E-2,-1.0320388E-2,-4.72636E-2,-3.107274E-2,-2.425333E-2,-5.7321177E-3,-1.3563981E-2,-4.2670444E-2,3.084416E-3,-1.7973596E-2,1.1389481E-2,3.8618825E-2,-1.4376429E-2,1.1360233E-2,-2.515654E-2,-1.5523434E-3,8.009228E-3,2.3893261E-2,1.982704E-2,3.613781E-2,3.4766264E-2,4.7075305E-2,6.2642153E-3,3.44232E-2,4.7436666E-2,5.8971617E-2,6.280948E-2,7.805595E-2],"categories":[],"categories_nodes":[],"categories_segments":[],"categories_sizes":[],"default_left":[0,0,0,0,0,0,0,0,0,0,0,0,0,0,0,0,0,0,0,0,0,0,0,0,0,0,0,0,0,0,0,0,0,0,0,0,0,0,0,0,0,0,0,0,0,0,0,0,0,0,0,0,0,0,0,0,0,0,0,0,0],"id":1,"left_children":[1,3,5,7,9,11,13,15,17,19,21,23,25,27,29,31,33,35,37,39,41,43,45,47,49,51,53,55,57,-1,59,-1,-1,-1,-1,-1,-1,-1,-1,-1,-1,-1,-1,-1,-1,-1,-1,-1,-1,-1,-1,-1,-1,-1,-1,-1,-1,-1,-1,-1,-1],"loss_changes":[4.137586E3,1.585738E3,5.786096E2,2.7575684E2,3.365031E2,1.6010254E2,8.197339E1,1.17721436E2,4.9733536E1,1.8026407E2,1.418531E2,4.910028E1,4.9950867E1,2.4181274E1,9.101196E0,2.2948975E1,4.6825623E1,2.0853271E0,2.5390228E1,1.0919861E2,8.0707726E1,6.148575E1,6.0157753E1,1.0238386E1,3.1015526E1,2.056195E1,1.1061279E1,4.5184937E0,5.843506E0,0E0,2.614746E-1,0E0,0E0,0E0,0E0,0E0,0E0,0E0,0E0,0E0,0E0,0E0,0E0,0E0,0E0,0E0,0E0,0E0,0E0,0E0,0E0,0E0,0E0,0E0,0E0,0E0,0E0,0E0,0E0,0E0,0E0],"parents":[2147483647,0,0,1,1,2,2,3,3,4,4,5,5,6,6,7,7,8,8,9,9,10,10,11,11,12,12,13,13,14,14,15,15,16,16,17,17,18,18,19,19,20,20,21,21,22,22,23,23,24,24,25,25,26,26,27,27,28,28,30,30],"right_children":[2,4,6,8,10,12,14,16,18,20,22,24,26,28,30,32,34,36,38,40,42,44,46,48,50,52,54,56,58,-1,60,-1,-1,-1,-1,-1,-1,-1,-1,-1,-1,-1,-1,-1,-1,-1,-1,-1,-1,-1,-1,-1,-1,-1,-1,-1,-1,-1,-1,-1,-1],"split_conditions":[1.5590463E1,9E0,1.6677711E1,1.4077875E1,5.9E1,-1.3636364E1,1.737086E1,2.3E1,-4.7916668E1,2.6E1,1.0126671E1,-4.7916668E1,1.6023785E1,-3.1034483E1,-5.4545456E1,4.8520303E0,1.6260162E-1,1.484513E1,1.486283E1,3.4E1,3.2E1,1.7E1,2.2727273E0,-7.6E1,1.6077274E1,4.2857143E1,2.632E1,-6.25E1,5.882353E0,2.1194035E-2,1.7516813E1,-6.792249E-2,-4.909535E-2,-4.463089E-2,-1.0320388E-2,-4.72636E-2,-3.107274E-2,-2.425333E-2,-5.7321177E-3,-1.3563981E-2,-4.2670444E-2,3.084416E-3,-1.7973596E-2,1.1389481E-2,3.8618825E-2,-1.4376429E-2,1.1360233E-2,-2.515654E-2,-1.5523434E-3,8.009228E-3,2.3893261E-2,1.982704E-2,3.613781E-2,3.4766264E-2,4.7075305E-2,6.2642153E-3,3.44232E-2,4.7436666E-2,5.8971617E-2,6.280948E-2,7.805595E-2],"split_indices":[0,34,0,0,24,1,0,2,1,13,0,1,0,1,1,11,17,0,0,2,2,13,1,1,0,1,29,1,1,0,0,0,0,0,0,0,0,0,0,0,0,0,0,0,0,0,0,0,0,0,0,0,0,0,0,0,0,0,0,0,0],"split_type":[0,0,0,0,0,0,0,0,0,0,0,0,0,0,0,0,0,0,0,0,0,0,0,0,0,0,0,0,0,0,0,0,0,0,0,0,0,0,0,0,0,0,0,0,0,0,0,0,0,0,0,0,0,0,0,0,0,0,0,0,0],"sum_hessian":[7.067E3,4.89E3,2.177E3,1.287E3,3.603E3,1.475E3,7.02E2,9.21E2,3.66E2,2.951E3,6.52E2,5.81E2,8.94E2,4.69E2,2.33E2,4.67E2,4.54E2,9.3E1,2.73E2,1.787E3,1.164E3,3.23E2,3.29E2,1.26E2,4.55E2,4.3E2,4.64E2,8.3E1,3.86E2,6E0,2.27E2,3.55E2,1.12E2,4.12E2,4.2E1,5E1,4.3E1,1.36E2,1.37E2,1.663E3,1.24E2,9.69E2,1.95E2,1.26E2,1.97E2,1.42E2,1.87E2,1.8E1,1.08E2,2.4E2,2.15E2,3.33E2,9.7E1,3.39E2,1.25E2,8E0,7.5E1,2.4E2,1.46E2,9E1,1.37E2],"tree_param":{"num_deleted":"0","num_feature":"41","num_nodes":"61","size_leaf_vector":"1"}},{"base_weights":[-2.419275E-3,-5.135091E-1,1.116498E0,-1.4281194E0,-1.6908096E-1,7.543389E-1,1.8258868E0,-1.7249452E0,-7.2094345E-1,-5.4517653E-2,-7.679722E-1,3.4418145E-1,1.0114791E0,1.5676994E0,2.297978E0,-2.102045E0,-1.2930716E0,-1.284911E0,-5.408412E-1,-1.7656302E-1,5.9977144E-1,-1.0773534E0,-4.0986264E-1,-1.9636576E-1,4.978479E-1,8.3058757E-1,1.3393033E0,1.000549E0,1.6868153E0,4.3594252E-2,7.147033E-2,-6.484461E-2,-3.655326E-2,-3.0668514E-2,-5.398188E-2,-4.5266975E-2,-2.9387392E-2,-2.3625586E-2,-6.2228823E-3,-8.699615E-3,1.2298281E-2,1.0112397E-2,3.568459E-2,-4.4677738E-2,-2.6757266E-2,-2.5223117E-2,-3.4841346E-3,-2.3009278E-2,-8.30028E-4,7.573884E-3,2.3147115E-2,2.1171326E-2,3.6043707E-2,3.653899E-2,4.8526675E-2,7.868055E-3,3.2711357E-2,4.6141393E-2,5.8881983E-2],"categories":[],"categories_nodes":[],"categories_segments":[],"categories_sizes":[],"default_left":[0,0,0,0,0,0,0,0,0,0,0,0,0,0,0,0,0,0,0,0,0,0,0,0,0,0,0,0,0,0,0,0,0,0,0,0,0,0,0,0,0,0,0,0,0,0,0,0,0,0,0,0,0,0,0,0,0,0,0],"id":2,"left_children":[1,3,5,7,9,11,13,15,17,19,21,23,25,27,29,31,33,35,37,39,41,43,45,47,49,51,53,55,57,-1,-1,-1,-1,-1,-1,-1,-1,-1,-1,-1,-1,-1,-1,-1,-1,-1,-1,-1,-1,-1,-1,-1,-1,-1,-1,-1,-1,-1,-1],"loss_changes":[4.0090627E3,1.514898E3,5.606472E2,2.725288E2,2.3957474E2,1.5250366E2,8.118115E1,1.4351123E2,3.7614975E1,2.3476788E2,6.052777E1,4.7360474E1,4.9764282E1,2.8113525E1,9.476318E0,1.8779053E1,5.4825745E1,2.159912E0,2.4013947E1,1.6515704E2,7.000467E1,1.8992096E1,3.2740307E1,1.168911E1,2.8786407E1,2.4351135E1,5.243347E0,4.7204895E0,8.549072E0,0E0,0E0,0E0,0E0,0E0,0E0,0E0,0E0,0E0,0E0,0E0,0E0,0E0,0E0,0E0,0E0,0E0,0E0,0E0,0E0,0E0,0E0,0E0,0E0,0E0,0E0,0E0,0E0,0E0,0E0],"parents":[2147483647,0,0,1,1,2,2,3,3,4,4,5,5,6,6,7,7,8,8,9,9,10,10,11,11,12,12,13,13,14,14,15,15,16,16,17,17,18,18,19,19,20,20,21,21,22,22,23,23,24,24,25,25,26,26,27,27,28,28],"right_children":[2,4,6,8,10,12,14,16,18,20,22,24,26,28,30,32,34,36,38,40,42,44,46,48,50,52,54,56,58,-1,-1,-1,-1,-1,-1,-1,-1,-1,-1,-1,-1,-1,-1,-1,-1,-1,-1,-1,-1,-1,-1,-1,-1,-1,-1,-1,-1,-1,-1],"split_conditions":[1.5573369E1,1E1,1.6677711E1,1.4038655E1,3.2E1,-1.3636364E1,1.7327057E1,2.3E1,-4.7916668E1,-1E0,1.4557448E1,-4.7916668E1,1.6235878E1,-3.1034483E1,-3.25E1,1.3017005E1,1.0126671E1,1.484513E1,1.4914124E1,2.2580644E-1,3.888889E-1,-1.1764706E1,-3.25E1,-7E1,1.6092777E1,3.5714287E1,2.632E1,-6.25E1,1.2E1,4.3594252E-2,7.147033E-2,-6.484461E-2,-3.655326E-2,-3.0668514E-2,-5.398188E-2,-4.5266975E-2,-2.9387392E-2,-2.3625586E-2,-6.2228823E-3,-8.699615E-3,1.2298281E-2,1.0112397E-2,3.568459E-2,-4.4677738E-2,-2.6757266E-2,-2.5223117E-2,-3.4841346E-3,-2.3009278E-2,-8.30028E-4,7.573884E-3,2.3147115E-2,2.1171326E-2,3.6043707E-2,3.653899E-2,4.8526675E-2,7.868055E-3,3.2711357E-2,4.6141393E-2,5.8881983E-2],"split_indices":[0,34,0,0,2,1,0,2,1,30,0,1,0,1,1,0,0,0,0,31,25,1,1,1,0,1,29,1,29,0,0,0,0,0,0,0,0,0,0,0,0,0,0,0,0,0,0,0,0,0,0,0,0,0,0,0,0,0,0],"split_type":[0,0,0,0,0,0,0,0,0,0,0,0,0,0,0,0,0,0,0,0,0,0,0,0,0,0,0,0,0,0,0,0,0,0,0,0,0,0,0,0,0,0,0,0,0,0,0,0,0,0,0,0,0,0,0,0,0,0,0],"sum_hessian":[7.007E3,4.811E3,2.196E3,1.314E3,3.497E3,1.457E3,7.39E2,9.23E2,3.91E2,2.938E3,5.59E2,5.64E2,8.93E2,4.84E2,2.55E2,4.88E2,4.35E2,9.1E1,3E2,2.478E3,4.6E2,2.97E2,2.62E2,1.24E2,4.4E2,5.81E2,3.12E2,8.8E1,3.96E2,2.7E1,2.28E2,4.54E2,3.4E1,2.88E2,1.47E2,4.7E1,4.4E1,1.7E2,1.3E2,2.078E3,4E2,3.21E2,1.39E2,8.7E1,2.1E2,1.04E2,1.58E2,2.6E1,9.8E1,2.35E2,2.05E2,4.4E2,1.41E2,2.26E2,8.6E1,1.1E1,7.7E1,2.67E2,1.29E2],"tree_param":{"num_deleted":"0","num_feature":"41","num_nodes":"59","size_leaf_vector":"1"}},{"base_weights":[6.292906E-3,-4.8017395E-1,1.0869097E0,-1.4173812E0,-1.7726085E-1,7.2156805E-1,1.746352E0,-1.7000271E0,-6.74966E-1,-3.15999E-1,4.297595E-1,2.631043E-1,9.2074794E-1,1.4491104E0,2.1357002E0,-2.014226E0,-1.3347025E0,-1.0575155E0,-3.609946E-1,-4.1789013E-1,2.8856185E-1,-8.510877E-3,8.9064056E-1,-4.3607518E-1,3.6503708E-1,6.844346E-1,1.1580803E0,8.868088E-1,1.5654877E0,4.3330114E-2,2.229886E0,-6.4612195E-2,-4.0511146E-2,-4.2667575E-2,-7.6315785E-3,-4.5505363E-2,-2.576781E-2,-1.9207662E-2,-1.1929128E-3,-1.6908934E-2,-1.06179585E-4,1.7364725E-2,-1.4075455E-2,-5.792039E-3,2.1921823E-2,4.0551968E-2,9.817264E-3,-3.4350652E-2,-6.495916E-3,4.664061E-3,1.8881578E-2,1.7287804E-2,3.409754E-2,3.1078096E-2,4.586102E-2,6.6875224E-3,2.9613202E-2,4.241576E-2,5.3547706E-2,5.989878E-2,7.513106E-2],"categories":[],"categories_nodes":[],"categories_segments":[],"categories_sizes":[],"default_left":[0,0,0,0,0,0,0,0,0,0,0,0,0,0,0,0,0,0,0,0,0,0,0,0,0,0,0,0,0,0,0,0,0,0,0,0,0,0,0,0,0,0,0,0,0,0,0,0,0,0,0,0,0,0,0,0,0,0,0,0,0],"id":3,"left_children":[1,3,5,7,9,11,13,15,17,19,21,23,25,27,29,31,33,35,37,39,41,43,45,47,49,51,53,55,57,-1,59,-1,-1,-1,-1,-1,-1,-1,-1,-1,-1,-1,-1,-1,-1,-1,-1,-1,-1,-1,-1,-1,-1,-1,-1,-1,-1,-1,-1,-1,-1],"loss_changes":[3.6948047E3,1.3744425E3,5.2193677E2,2.4475928E2,3.088696E2,1.2749756E2,8.182446E1,9.1089355E1,3.8163406E1,1.8418002E2,1.3821375E2,3.092866E1,5.2456665E1,2.5248596E1,1.3275024E1,3.457202E1,3.64599E1,9.615387E0,1.6204899E1,1.540639E2,9.539404E1,4.790085E1,8.478201E1,7.3838577E0,2.0297352E1,2.2142471E1,1.7505798E1,4.415039E0,5.564514E0,0E0,6.1243896E0,0E0,0E0,0E0,0E0,0E0,0E0,0E0,0E0,0E0,0E0,0E0,0E0,0E0,0E0,0E0,0E0,0E0,0E0,0E0,0E0,0E0,0E0,0E0,0E0,0E0,0E0,0E0,0E0,0E0,0E0],"parents":[2147483647,0,0,1,1,2,2,3,3,4,4,5,5,6,6,7,7,8,8,9,9,10,10,11,11,12,12,13,13,14,14,15,15,16,16,17,17,18,18,19,19,20,20,21,21,22,22,23,23,24,24,25,25,26,26,27,27,28,28,30,30],"right_children":[2,4,6,8,10,12,14,16,18,20,22,24,26,28,30,32,34,36,38,40,42,44,46,48,50,52,54,56,58,-1,60,-1,-1,-1,-1,-1,-1,-1,-1,-1,-1,-1,-1,-1,-1,-1,-1,-1,-1,-1,-1,-1,-1,-1,-1,-1,-1,-1,-1,-1,-1],"split_conditions":[1.5573369E1,5.263158E-2,1.6618872E1,1.4077875E1,5.9E1,-2E1,1.7182806E1,5.29E2,-3.25E1,-1E0,7.0647593E0,-5.9090908E1,1.6040134E1,-3.1034483E1,-3.25E1,4.4444446E-2,1.3289036E-1,-6E1,1.486283E1,1.5009434E1,9E2,-2E0,1.0126671E1,-8.2E1,1.6077274E1,4.2857143E1,3.1313131E1,-6.25E1,6.6666665E0,4.3330114E-2,1.7516813E1,-6.4612195E-2,-4.0511146E-2,-4.2667575E-2,-7.6315785E-3,-4.5505363E-2,-2.576781E-2,-1.9207662E-2,-1.1929128E-3,-1.6908934E-2,-1.06179585E-4,1.7364725E-2,-1.4075455E-2,-5.792039E-3,2.1921823E-2,4.0551968E-2,9.817264E-3,-3.4350652E-2,-6.495916E-3,4.664061E-3,1.8881578E-2,1.7287804E-2,3.409754E-2,3.1078096E-2,4.586102E-2,6.6875224E-3,2.9613202E-2,4.241576E-2,5.3547706E-2,5.989878E-2,7.513106E-2],"split_indices":[0,25,0,0,24,1,0,3,1,30,11,1,0,1,1,12,17,1,0,0,3,30,0,1,0,1,1,1,1,0,0,0,0,0,0,0,0,0,0,0,0,0,0,0,0,0,0,0,0,0,0,0,0,0,0,0,0,0,0,0,0],"split_type":[0,0,0,0,0,0,0,0,0,0,0,0,0,0,0,0,0,0,0,0,0,0,0,0,0,0,0,0,0,0,0,0,0,0,0,0,0,0,0,0,0,0,0,0,0,0,0,0,0,0,0,0,0,0,0,0,0,0,0,0,0],"sum_hessian":[7.024E3,4.844E3,2.18E3,1.181E3,3.663E3,1.406E3,7.74E2,8.53E2,3.28E2,2.983E3,6.8E2,4.28E2,9.78E2,4.45E2,3.29E2,4.53E2,4E2,1.45E2,1.83E2,2.554E3,4.29E2,3.49E2,3.31E2,5.3E1,3.75E2,4.95E2,4.83E2,8E1,3.65E2,4.4E1,2.85E2,3.7E2,8.3E1,3.69E2,3.1E1,3.9E1,1.06E2,9.6E1,8.7E1,1.888E3,6.66E2,3.11E2,1.18E2,2.81E2,6.8E1,1.8E2,1.51E2,1E1,4.3E1,2.12E2,1.63E2,4.04E2,9.1E1,3.7E2,1.13E2,1.2E1,6.8E1,2.26E2,1.39E2,1.64E2,1.21E2],"tree_param":{"num_deleted":"0","num_feature":"41","num_nodes":"61","size_leaf_vector":"1"}},{"base_weights":[2.2013718E-3,-4.5247552E-1,1.0976691E0,-1.3557535E0,-1.5813972E-1,7.478655E-1,1.710547E0,-1.6538811E0,-6.276479E-1,-2.924681E-1,4.18646E-1,2.8730315E-1,9.563965E-1,1.4698153E0,2.1661477E0,-1.9721278E0,-1.3498036E0,-1.1841377E0,-4.223027E-1,-5.2822375E-1,-4.165306E-2,-4.9816046E-2,8.134163E-1,-3.731659E-1,4.0026385E-1,7.603293E-1,1.2134538E0,9.153375E-1,1.590016E0,3.7238125E-2,2.232451E0,-4.8664816E-2,-6.421485E-2,-4.9037516E-2,-2.809778E-2,-3.872483E-2,-1.5400346E-2,-2.2249052E-2,-3.2142305E-3,-1.997552E-2,-2.6245725E-3,-4.1327477E-3,1.5882365E-2,9.476794E-3,-7.0099155E-3,3.7254345E-2,9.351997E-3,-2.9936E-2,-6.0521876E-3,5.627832E-3,1.8991249E-2,1.9426156E-2,3.510567E-2,3.1982888E-2,4.342537E-2,-0E0,2.9849604E-2,4.316554E-2,5.521637E-2,5.7905667E-2,7.276439E-2],"categories":[],"categories_nodes":[],"categories_segments":[],"categories_sizes":[],"default_left":[0,0,0,0,0,0,0,0,0,0,0,0,0,0,0,0,0,0,0,0,0,0,0,0,0,0,0,0,0,0,0,0,0,0,0,0,0,0,0,0,0,0,0,0,0,0,0,0,0,0,0,0,0,0,0,0,0,0,0,0,0],"id":4,"left_children":[1,3,5,7,9,11,13,15,17,19,21,23,25,27,29,31,33,35,37,39,41,43,45,47,49,51,53,55,57,-1,59,-1,-1,-1,-1,-1,-1,-1,-1,-1,-1,-1,-1,-1,-1,-1,-1,-1,-1,-1,-1,-1,-1,-1,-1,-1,-1,-1,-1,-1,-1],"loss_changes":[3.5098188E3,1.3225664E3,4.393501E2,2.6225757E2,2.9134674E2,1.2560339E2,7.396289E1,7.6819336E1,3.9220474E1,1.8002078E2,1.3176663E2,3.1274204E1,4.2881104E1,2.8960938E1,8.296875E0,1.5804199E1,4.8606018E1,4.5714874E0,2.6187283E1,9.479965E1,8.1230774E1,2.2025066E1,8.140758E1,5.530078E0,1.6975853E1,2.1660645E1,9.0390625E0,6.382683E0,8.401672E0,0E0,2.1118164E0,0E0,0E0,0E0,0E0,0E0,0E0,0E0,0E0,0E0,0E0,0E0,0E0,0E0,0E0,0E0,0E0,0E0,0E0,0E0,0E0,0E0,0E0,0E0,0E0,0E0,0E0,0E0,0E0,0E0,0E0],"parents":[2147483647,0,0,1,1,2,2,3,3,4,4,5,5,6,6,7,7,8,8,9,9,10,10,11,11,12,12,13,13,14,14,15,15,16,16,17,17,18,18,19,19,20,20,21,21,22,22,23,23,24,24,25,25,26,26,27,27,28,28,30,30],"right_children":[2,4,6,8,10,12,14,16,18,20,22,24,26,28,30,32,34,36,38,40,42,44,46,48,50,52,54,56,58,-1,60,-1,-1,-1,-1,-1,-1,-1,-1,-1,-1,-1,-1,-1,-1,-1,-1,-1,-1,-1,-1,-1,-1,-1,-1,-1,-1,-1,-1,-1,-1],"split_conditions":[1.5671808E1,5.263158E-2,1.6677711E1,1.4077875E1,5.9E1,-2E1,1.7312017E1,2E0,-4.6666668E1,2.3E1,1.6549295E1,-5.9090908E1,1.6166885E1,-3.1034483E1,-4E1,1.6666667E-1,-6E0,1.5404746E1,1.486283E1,1.49629135E1,-1E0,6.931472E-1,1.0126671E1,-8.2E1,1.6077274E1,3.3333332E1,1.4285714E1,-7E1,1.2E1,3.7238125E-2,1.7516813E1,-4.8664816E-2,-6.421485E-2,-4.9037516E-2,-2.809778E-2,-3.872483E-2,-1.5400346E-2,-2.2249052E-2,-3.2142305E-3,-1.997552E-2,-2.6245725E-3,-4.1327477E-3,1.5882365E-2,9.476794E-3,-7.0099155E-3,3.7254345E-2,9.351997E-3,-2.9936E-2,-6.0521876E-3,5.627832E-3,1.8991249E-2,1.9426156E-2,3.510567E-2,3.1982888E-2,4.342537E-2,-0E0,2.9849604E-2,4.316554E-2,5.521637E-2,5.7905667E-2,7.276439E-2],"split_indices":[0,25,0,0,24,1,0,13,1,13,21,1,0,1,1,9,30,0,0,0,30,4,0,1,0,1,1,1,29,0,0,0,0,0,0,0,0,0,0,0,0,0,0,0,0,0,0,0,0,0,0,0,0,0,0,0,0,0,0,0,0],"split_type":[0,0,0,0,0,0,0,0,0,0,0,0,0,0,0,0,0,0,0,0,0,0,0,0,0,0,0,0,0,0,0,0,0,0,0,0,0,0,0,0,0,0,0,0,0,0,0,0,0,0,0,0,0,0,0,0,0,0,0,0,0],"sum_hessian":[7.042E3,4.977E3,2.065E3,1.221E3,3.756E3,1.318E3,7.47E2,8.64E2,3.57E2,3.048E3,7.08E2,4.13E2,9.05E2,4.95E2,2.52E2,4.16E2,4.48E2,9.3E1,2.64E2,1.569E3,1.479E3,3.24E2,3.84E2,5.9E1,3.54E2,5.19E2,3.86E2,9.2E1,4.03E2,2E1,2.32E2,1.43E2,2.73E2,2.61E2,1.87E2,7.8E1,1.5E1,1.29E2,1.35E2,1.194E3,3.75E2,1.268E3,2.11E2,1.07E2,2.17E2,2.05E2,1.79E2,1E1,4.9E1,1.88E2,1.66E2,4.12E2,1.07E2,2.45E2,1.41E2,8E0,8.4E1,2.61E2,1.42E2,1E2,1.32E2],"tree_param":{"num_deleted":"0","num_feature":"41","num_nodes":"61","size_leaf_vector":"1"}},{"base_weights":[-4.954366E-3,-4.66864E-1,1.0166806E0,-1.3308004E0,-1.7596923E-1,6.7021525E-1,1.652323E0,-1.6006355E0,-6.322576E-1,-4.3749067E-1,9.717707E-2,4.8702767E-1,9.797826E-1,1.3684362E0,2.0222292E0,-1.8798306E0,-1.2820493E0,-9.132056E-1,-3.0256498E-1,-3.702105E-1,-1.2585794E0,-5.7342697E-2,8.268155E-1,5.787922E-1,1.3110583E-1,1.0562209E0,6.612821E-1,1.4206148E0,9.770668E-1,1.8298906E0,7.0745386E-2,-6.0813088E-2,-4.2207208E-2,-4.0580537E-2,-5.360349E-3,-2.3524424E-2,-3.8738925E-2,-5.501432E-4,-1.239298E-2,-1.4541447E-2,1.7693118E-3,-4.3258846E-2,-2.090699E-2,1.5076778E-3,-1.809266E-2,3.6647875E-2,8.7413825E-3,1.1740656E-2,2.0440632E-2,-1.9921686E-3,8.361233E-3,2.7052509E-2,3.5512116E-2,1.2381018E-2,2.4274854E-2,3.8750265E-2,4.7663894E-2,3.1279013E-2,9.548047E-3,5.5521082E-2,1.7802928E-2],"categories":[],"categories_nodes":[],"categories_segments":[],"categories_sizes":[],"default_left":[0,0,0,0,0,0,0,0,0,0,0,0,0,0,0,0,0,0,0,0,0,0,0,0,0,0,0,0,0,0,0,0,0,0,0,0,0,0,0,0,0,0,0,0,0,0,0,0,0,0,0,0,0,0,0,0,0,0,0,0,0],"id":5,"left_children":[1,3,5,7,9,11,13,15,17,19,21,23,25,27,29,31,33,35,37,39,41,43,45,47,49,51,53,55,57,59,-1,-1,-1,-1,-1,-1,-1,-1,-1,-1,-1,-1,-1,-1,-1,-1,-1,-1,-1,-1,-1,-1,-1,-1,-1,-1,-1,-1,-1,-1,-1],"loss_changes":[3.3422195E3,1.2246907E3,4.8222705E2,2.283269E2,2.6113074E2,7.946265E1,7.425903E1,7.222876E1,3.0888275E1,1.01392395E2,2.0195232E2,2.901883E1,1.0623199E1,5.1328735E0,1.0728149E1,2.5035278E1,3.1484436E1,5.964386E0,4.8900747E0,8.523981E1,1.1341034E1,8.7009995E1,6.469345E1,1.2713898E1,5.6530986E0,5.134735E0,2.7280426E0,2.8692627E0,1.2476044E0,2.2685547E0,0E0,0E0,0E0,0E0,0E0,0E0,0E0,0E0,0E0,0E0,0E0,0E0,0E0,0E0,0E0,0E0,0E0,0E0,0E0,0E0,0E0,0E0,0E0,0E0,0E0,0E0,0E0,0E0,0E0,0E0,0E0],"parents":[2147483647,0,0,1,1,2,2,3,3,4,4,5,5,6,6,7,7,8,8,9,9,10,10,11,11,12,12,13,13,14,14,15,15,16,16,17,17,18,18,19,19,20,20,21,21,22,22,23,23,24,24,25,25,26,26,27,27,28,28,29,29],"right_children":[2,4,6,8,10,12,14,16,18,20,22,24,26,28,30,32,34,36,38,40,42,44,46,48,50,52,54,56,58,60,-1,-1,-1,-1,-1,-1,-1,-1,-1,-1,-1,-1,-1,-1,-1,-1,-1,-1,-1,-1,-1,-1,-1,-1,-1,-1,-1,-1,-1,-1,-1],"split_conditions":[1.5573369E1,5.263158E-2,1.6618872E1,1.4151983E1,2.625E1,1.6147655E1,1.7182806E1,2.3E1,1.486283E1,3.4E1,5.9E1,3.1E1,3E1,3.1E1,1.7686712E1,6.9E1,3.7036E0,3.3E1,2.5E1,5.7E1,1.484513E1,3.2E1,1.3554147E1,6.906755E0,4.1111112E-1,4.8421052E-1,7.2442274E0,1.6883564E1,2.402E-1,3.3E1,7.0745386E-2,-6.0813088E-2,-4.2207208E-2,-4.0580537E-2,-5.360349E-3,-2.3524424E-2,-3.8738925E-2,-5.501432E-4,-1.239298E-2,-1.4541447E-2,1.7693118E-3,-4.3258846E-2,-2.090699E-2,1.5076778E-3,-1.809266E-2,3.6647875E-2,8.7413825E-3,1.1740656E-2,2.0440632E-2,-1.9921686E-3,8.361233E-3,2.7052509E-2,3.5512116E-2,1.2381018E-2,2.4274854E-2,3.8750265E-2,4.7663894E-2,3.1279013E-2,9.548047E-3,5.5521082E-2,1.7802928E-2],"split_indices":[0,25,0,0,21,0,0,2,0,2,24,2,2,2,0,24,21,2,2,24,0,2,0,11,12,12,11,0,27,2,0,0,0,0,0,0,0,0,0,0,0,0,0,0,0,0,0,0,0,0,0,0,0,0,0,0,0,0,0,0,0],"split_type":[0,0,0,0,0,0,0,0,0,0,0,0,0,0,0,0,0,0,0,0,0,0,0,0,0,0,0,0,0,0,0,0,0,0,0,0,0,0,0,0,0,0,0,0,0,0,0,0,0,0,0,0,0,0,0,0,0,0,0,0,0],"sum_hessian":[7.079E3,4.876E3,2.203E3,1.226E3,3.65E3,1.429E3,7.74E2,8.82E2,3.44E2,1.865E3,1.785E3,9.02E2,5.27E2,4.44E2,3.3E2,4.64E2,4.18E2,1.83E2,1.61E2,1.727E3,1.38E2,1.474E3,3.11E2,7.15E2,1.87E2,4.2E2,1.07E2,3.86E2,5.8E1,2.19E2,1.11E2,3.48E2,1.16E2,3.92E2,2.6E1,1.42E2,4.1E1,4.7E1,1.14E2,1.364E3,3.63E2,1.01E2,3.7E1,1.232E3,2.42E2,1.77E2,1.34E2,2.58E2,4.57E2,7.9E1,1.08E2,1.99E2,2.21E2,4.4E1,6.3E1,2.3E2,1.56E2,5.1E1,7E0,2.14E2,5E0],"tree_param":{"num_deleted":"0","num_feature":"41","num_nodes":"61","size_leaf_vector":"1"}},{"base_weights":[4.256655E-4,-4.1897807E-1,1.0428464E0,-1.2539505E0,-1.2218362E-1,7.0477957E-1,1.5830345E0,-1.4986106E0,-5.1008373E-1,-2.6107547E-1,4.062106E-1,5.192759E-1,9.516657E-1,1.3132093E0,1.9549168E0,-1.1662891E0,-1.8251982E0,-7.457251E-1,-2.0844501E-1,-4.6621937E-1,-1.379826E-2,9.170275E-1,9.166526E-2,3.6733314E-1,6.386387E-1,7.856095E-1,1.0580926E0,5.190811E-1,1.3330412E0,5.2248836E-2,6.690395E-2,-3.7867974E-2,-5.551596E-3,-5.8763545E-2,-3.973396E-2,-2.4122912E-2,-1.4025327E-2,-7.985682E-3,5.6708155E-5,-1.7577514E-2,-2.964947E-4,-3.1853658E-3,1.6970057E-2,1.1598714E-2,3.6459204E-2,-5.7634725E-3,1.0754493E-2,1.2606695E-2,3.2654896E-3,2.1480147E-2,1.4225388E-2,1.8068146E-2,2.6468098E-2,3.355196E-2,2.6596572E-2,2.2733029E-2,-0E0,3.7116107E-2,4.456547E-2],"categories":[],"categories_nodes":[],"categories_segments":[],"categories_sizes":[],"default_left":[0,0,0,0,0,0,0,0,0,0,0,0,0,0,0,0,0,0,0,0,0,0,0,0,0,0,0,0,0,0,0,0,0,0,0,0,0,0,0,0,0,0,0,0,0,0,0,0,0,0,0,0,0,0,0,0,0,0,0],"id":6,"left_children":[1,3,5,7,9,11,13,15,17,19,21,23,25,27,29,31,33,35,37,39,41,43,45,47,49,51,53,55,57,-1,-1,-1,-1,-1,-1,-1,-1,-1,-1,-1,-1,-1,-1,-1,-1,-1,-1,-1,-1,-1,-1,-1,-1,-1,-1,-1,-1,-1,-1],"loss_changes":[3.0764167E3,1.2422942E3,3.6533398E2,2.3678955E2,2.7197482E2,5.534088E1,7.099756E1,1.0147681E2,2.259687E1,1.4863211E2,1.2320802E2,1.203157E1,6.7999573E0,4.871582E0,9.088867E0,4.5520386E1,2.6213867E1,1.584259E0,1.9307175E0,8.7250275E1,7.130141E1,4.461435E1,3.6565487E1,4.0461082E0,3.7771301E0,2.0405731E0,2.8347778E-1,1.7004404E0,1.4363403E0,0E0,0E0,0E0,0E0,0E0,0E0,0E0,0E0,0E0,0E0,0E0,0E0,0E0,0E0,0E0,0E0,0E0,0E0,0E0,0E0,0E0,0E0,0E0,0E0,0E0,0E0,0E0,0E0,0E0,0E0],"parents":[2147483647,0,0,1,1,2,2,3,3,4,4,5,5,6,6,7,7,8,8,9,9,10,10,11,11,12,12,13,13,14,14,15,15,16,16,17,17,18,18,19,19,20,20,21,21,22,22,23,23,24,24,25,25,26,26,27,27,28,28],"right_children":[2,4,6,8,10,12,14,16,18,20,22,24,26,28,30,32,34,36,38,40,42,44,46,48,50,52,54,56,58,-1,-1,-1,-1,-1,-1,-1,-1,-1,-1,-1,-1,-1,-1,-1,-1,-1,-1,-1,-1,-1,-1,-1,-1,-1,-1,-1,-1,-1,-1],"split_conditions":[1.5717618E1,1E1,1.6618872E1,1.4285515E1,5.7E1,1.6166885E1,1.7182806E1,3.3333334E-1,1.5039287E1,3.3333332E1,6.931472E-1,7.2442274E0,7.254178E0,2E0,1.75997E1,1.6260162E-1,6.9E1,1.6666667E-1,1.6666667E-1,1.5096445E1,-1E0,1.7E1,2.375E1,1E0,1.9459101E0,1.6357113E1,2.0794415E0,-1E0,1.6920097E1,5.2248836E-2,6.690395E-2,-3.7867974E-2,-5.551596E-3,-5.8763545E-2,-3.973396E-2,-2.4122912E-2,-1.4025327E-2,-7.985682E-3,5.6708155E-5,-1.7577514E-2,-2.964947E-4,-3.1853658E-3,1.6970057E-2,1.1598714E-2,3.6459204E-2,-5.7634725E-3,1.0754493E-2,1.2606695E-2,3.2654896E-3,2.1480147E-2,1.4225388E-2,1.8068146E-2,2.6468098E-2,3.355196E-2,2.6596572E-2,2.2733029E-2,-0E0,3.7116107E-2,4.456547E-2],"split_indices":[0,34,0,0,24,0,0,9,0,21,4,11,11,13,0,17,24,9,9,0,30,13,21,30,4,0,4,30,0,0,0,0,0,0,0,0,0,0,0,0,0,0,0,0,0,0,0,0,0,0,0,0,0,0,0,0,0,0,0],"split_type":[0,0,0,0,0,0,0,0,0,0,0,0,0,0,0,0,0,0,0,0,0,0,0,0,0,0,0,0,0,0,0,0,0,0,0,0,0,0,0,0,0,0,0,0,0,0,0,0,0,0,0,0,0,0,0,0,0,0,0],"sum_hessian":[7.032E3,5.015E3,2.017E3,1.313E3,3.702E3,1.244E3,7.73E2,9.86E2,3.27E2,2.933E3,7.69E2,7.15E2,5.29E2,4.54E2,3.19E2,4.94E2,4.92E2,1.81E2,1.46E2,1.601E3,1.332E3,2.91E2,4.78E2,3.2E2,3.95E2,2.15E2,3.14E2,1.3E1,4.41E2,1.89E2,1.3E2,4.49E2,4.5E1,3.83E2,1.09E2,1.45E2,3.6E1,1.16E2,3E1,1.267E3,3.34E2,1.151E3,1.81E2,1.07E2,1.84E2,2.31E2,2.47E2,2.63E2,5.7E1,2.62E2,1.33E2,8.1E1,1.34E2,2.22E2,9.2E1,8E0,5E0,2.84E2,1.57E2],"tree_param":{"num_deleted":"0","num_feature":"41","num_nodes":"59","size_leaf_vector":"1"}},{"base_weights":[-1.46149505E-5,-4.476172E-1,9.704366E-1,-1.2265816E0,-1.4819919E-1,6.4492553E-1,1.559193E0,-1.4804798E0,-6.242799E-1,-2.737519E-1,4.1755494E-1,2.813446E-1,8.737412E-1,1.314282E0,1.9769242E0,-1.7951422E0,-1.1346977E0,-1.1482635E0,-4.4616508E-1,-5.02619E-1,-5.1862843E-2,8.7908584E-1,9.5716365E-2,-1.921844E-1,4.1112766E-1,6.625046E-1,1.0885686E0,8.95055E-1,1.4472622E0,1.8285445E0,7.115617E-2,-6.308093E-2,-4.525334E-2,-2.433886E-2,-4.466953E-2,-4.0566202E-2,-2.5816984E-2,-1.9059539E-2,-1.2776061E-3,-1.3033488E-2,-3.8837206E-2,-4.571747E-3,1.7260361E-2,1.0645124E-2,3.613473E-2,-2.1610232E-2,6.8800445E-3,-2.0000141E-2,-1.6765539E-3,6.0799E-3,1.953223E-2,1.6682692E-2,3.0737517E-2,2.9080022E-2,4.0980794E-2,3.4166928E-3,2.9310962E-2,3.8874887E-2,4.934657E-2,4.366955E-2,5.8622204E-2],"categories":[],"categories_nodes":[],"categories_segments":[],"categories_sizes":[],"default_left":[0,0,0,0,0,0,0,0,0,0,0,0,0,0,0,0,0,0,0,0,0,0,0,0,0,0,0,0,0,0,0,0,0,0,0,0,0,0,0,0,0,0,0,0,0,0,0,0,0,0,0,0,0,0,0,0,0,0,0,0,0],"id":7,"left_children":[1,3,5,7,9,11,13,15,17,19,21,23,25,27,29,31,33,35,37,39,41,43,45,47,49,51,53,55,57,59,-1,-1,-1,-1,-1,-1,-1,-1,-1,-1,-1,-1,-1,-1,-1,-1,-1,-1,-1,-1,-1,-1,-1,-1,-1,-1,-1,-1,-1,-1,-1],"loss_changes":[3.069043E3,1.1268783E3,4.2425903E2,2.0232227E2,2.4848451E2,1.1872876E2,7.418494E1,9.695532E1,3.5696518E1,1.4506268E2,9.366623E1,3.4682873E1,3.7706726E1,2.4447083E1,6.1030273E0,3.4968506E1,4.8566467E1,2.4336853E0,2.2813679E1,7.4024414E1,9.1831276E1,4.271974E1,4.11931E1,7.389548E0,2.1368195E1,1.5447464E1,1.050885E1,7.42881E0,5.638794E0,2.8574219E0,0E0,0E0,0E0,0E0,0E0,0E0,0E0,0E0,0E0,0E0,0E0,0E0,0E0,0E0,0E0,0E0,0E0,0E0,0E0,0E0,0E0,0E0,0E0,0E0,0E0,0E0,0E0,0E0,0E0,0E0,0E0],"parents":[2147483647,0,0,1,1,2,2,3,3,4,4,5,5,6,6,7,7,8,8,9,9,10,10,11,11,12,12,13,13,14,14,15,15,16,16,17,17,18,18,19,19,20,20,21,21,22,22,23,23,24,24,25,25,26,26,27,27,28,28,29,29],"right_children":[2,4,6,8,10,12,14,16,18,20,22,24,26,28,30,32,34,36,38,40,42,44,46,48,50,52,54,56,58,60,-1,-1,-1,-1,-1,-1,-1,-1,-1,-1,-1,-1,-1,-1,-1,-1,-1,-1,-1,-1,-1,-1,-1,-1,-1,-1,-1,-1,-1,-1,-1],"split_conditions":[1.5573369E1,1E1,1.6618872E1,1.4038655E1,5.9E1,-1.3636364E1,1.7265497E1,2.3E1,-4.7916668E1,2.625E1,6.931472E-1,-4.7916668E1,1.6023785E1,-2.174E1,1.7909855E1,-7E0,6.931472E-1,1.484513E1,1.5039287E1,3.4E1,-1E0,1.4285714E1,-2.2222221E1,-7E1,1.6092777E1,4.2857143E1,3.043E1,-6.25E1,6.6666665E0,-1.3636364E1,7.115617E-2,-6.308093E-2,-4.525334E-2,-2.433886E-2,-4.466953E-2,-4.0566202E-2,-2.5816984E-2,-1.9059539E-2,-1.2776061E-3,-1.3033488E-2,-3.8837206E-2,-4.571747E-3,1.7260361E-2,1.0645124E-2,3.613473E-2,-2.1610232E-2,6.8800445E-3,-2.0000141E-2,-1.6765539E-3,6.0799E-3,1.953223E-2,1.6682692E-2,3.0737517E-2,2.9080022E-2,4.0980794E-2,3.4166928E-3,2.9310962E-2,3.8874887E-2,4.934657E-2,4.366955E-2,5.8622204E-2],"split_indices":[0,34,0,0,24,1,0,2,1,21,4,1,0,29,0,30,4,0,0,2,30,21,1,1,0,1,29,1,1,1,0,0,0,0,0,0,0,0,0,0,0,0,0,0,0,0,0,0,0,0,0,0,0,0,0,0,0,0,0,0,0],"split_type":[0,0,0,0,0,0,0,0,0,0,0,0,0,0,0,0,0,0,0,0,0,0,0,0,0,0,0,0,0,0,0,0,0,0,0,0,0,0,0,0,0,0,0,0,0,0,0,0,0,0,0,0,0,0,0,0,0,0,0,0,0],"sum_hessian":[7.062E3,4.834E3,2.228E3,1.34E3,3.494E3,1.438E3,7.9E2,9.4E2,4E2,2.861E3,6.33E2,5.58E2,8.8E2,5.04E2,2.86E2,4.87E2,4.53E2,9.8E1,3.02E2,1.406E3,1.455E3,2.58E2,3.75E2,1.19E2,4.39E2,4.49E2,4.31E2,1.26E2,3.78E2,2.17E2,6.9E1,2.28E2,2.59E2,2.41E2,2.12E2,5.2E1,4.6E1,2.04E2,9.8E1,1.298E3,1.08E2,1.256E3,1.99E2,1.01E2,1.57E2,5.1E1,3.24E2,2.4E1,9.5E1,2.38E2,2.01E2,3.52E2,9.7E1,3.09E2,1.22E2,1.3E1,1.13E2,2.24E2,1.54E2,6.2E1,1.55E2],"tree_param":{"num_deleted":"0","num_feature":"41","num_nodes":"61","size_leaf_vector":"1"}},{"base_weights":[2.33598E-3,-7.0460546E-1,3.7783358E-1,-1.0533495E0,-2.7384013E-1,3.0996168E-2,9.168976E-1,-1.5330036E0,-7.339124E-1,-4.9615288E-1,2.033157E-1,-1.5205693E-1,5.364461E-1,4.6562156E-1,1.1896839E0,-1.8532186E0,-1.054657E0,-6.265286E-1,-5.099789E-2,-5.8220285E-1,7.25346E-4,3.1602487E-1,-6.493472E-1,-2.790042E-1,3.4026343E-1,7.434137E-1,-2.0304885E-2,5.547683E-1,-4.7166413E-1,9.620283E-1,1.6319573E0,-6.211965E-2,-3.772288E-2,-4.419152E-2,-2.3639137E-2,-2.2731695E-2,2.142126E-3,-2.9860644E-2,-1.4438272E-2,6.594214E-3,-3.8958325E-3,4.5168507E-3,1.8588495E-2,-2.2503322E-2,-5.7809777E-3,-1.5025561E-2,-2.0547854E-3,5.112266E-3,2.1009501E-2,1.5355752E-2,3.0968934E-2,3.8833295E-3,-2.4578238E-2,1.0117436E-2,2.9776657E-2,-5.490024E-3,-2.4475176E-2,2.4547439E-2,4.505408E-2,5.2438244E-2,2.76945E-2],"categories":[],"categories_nodes":[],"categories_segments":[],"categories_sizes":[],"default_left":[0,0,0,0,0,0,0,0,0,0,0,0,0,0,0,0,0,0,0,0,0,0,0,0,0,0,0,0,0,0,0,0,0,0,0,0,0,0,0,0,0,0,0,0,0,0,0,0,0,0,0,0,0,0,0,0,0,0,0,0,0],"id":8,"left_children":[1,3,5,7,9,11,13,15,17,19,21,23,25,27,29,31,33,35,-1,37,39,41,43,45,47,49,51,53,55,57,59,-1,-1,-1,-1,-1,-1,-1,-1,-1,-1,-1,-1,-1,-1,-1,-1,-1,-1,-1,-1,-1,-1,-1,-1,-1,-1,-1,-1,-1,-1],"loss_changes":[1.8742145E3,3.6666492E2,8.617637E2,2.0376892E2,1.169277E2,2.6025574E2,2.2026343E2,7.7044556E1,8.1354065E1,3.240161E1,3.387978E1,1.2909409E2,8.658333E1,5.771721E1,1.0863342E2,3.4453857E1,2.1207123E1,6.802634E1,0E0,2.503218E1,3.3062823E0,1.5050873E1,1.1260529E0,7.6330574E1,2.5195236E1,3.469455E1,2.4964611E1,5.8278107E1,5.163024E0,5.43562E1,2.6512756E1,0E0,0E0,0E0,0E0,0E0,0E0,0E0,0E0,0E0,0E0,0E0,0E0,0E0,0E0,0E0,0E0,0E0,0E0,0E0,0E0,0E0,0E0,0E0,0E0,0E0,0E0,0E0,0E0,0E0,0E0],"parents":[2147483647,0,0,1,1,2,2,3,3,4,4,5,5,6,6,7,7,8,8,9,9,10,10,11,11,12,12,13,13,14,14,15,15,16,16,17,17,19,19,20,20,21,21,22,22,23,23,24,24,25,25,26,26,27,27,28,28,29,29,30,30],"right_children":[2,4,6,8,10,12,14,16,18,20,22,24,26,28,30,32,34,36,-1,38,40,42,44,46,48,50,52,54,56,58,60,-1,-1,-1,-1,-1,-1,-1,-1,-1,-1,-1,-1,-1,-1,-1,-1,-1,-1,-1,-1,-1,-1,-1,-1,-1,-1,-1,-1,-1,-1],"split_conditions":[2.2580644E-1,5.263158E-2,5.9E1,5.29E2,-3E0,-2E0,2.448276E1,6.931472E-1,1.225E3,7.903012E-2,1.024E3,2.2580644E-1,9E2,1.089E3,-2E0,3E0,1E0,6.4E1,-5.099789E-2,3E1,1.9843135E0,2.7058147E-2,1E0,2.3E1,3.846154E-1,5.744108E-1,1.156E3,-2E0,1.225E3,4.2857143E-1,9.61E2,-6.211965E-2,-3.772288E-2,-4.419152E-2,-2.3639137E-2,-2.2731695E-2,2.142126E-3,-2.9860644E-2,-1.4438272E-2,6.594214E-3,-3.8958325E-3,4.5168507E-3,1.8588495E-2,-2.2503322E-2,-5.7809777E-3,-1.5025561E-2,-2.0547854E-3,5.112266E-3,2.1009501E-2,1.5355752E-2,3.0968934E-2,3.8833295E-3,-2.4578238E-2,1.0117436E-2,2.9776657E-2,-5.490024E-3,-2.4475176E-2,2.4547439E-2,4.505408E-2,5.2438244E-2,2.76945E-2],"split_indices":[25,25,24,3,30,30,21,4,3,20,3,31,3,3,30,13,7,24,0,24,33,20,38,13,31,12,3,30,3,31,3,0,0,0,0,0,0,0,0,0,0,0,0,0,0,0,0,0,0,0,0,0,0,0,0,0,0,0,0,0,0],"split_type":[0,0,0,0,0,0,0,0,0,0,0,0,0,0,0,0,0,0,0,0,0,0,0,0,0,0,0,0,0,0,0,0,0,0,0,0,0,0,0,0,0,0,0,0,0,0,0,0,0,0,0,0,0,0,0,0,0,0,0,0,0],"sum_hessian":[7.057E3,2.447E3,4.61E3,1.35E3,1.097E3,2.807E3,1.803E3,5.36E2,8.14E2,7.49E2,3.48E2,2.061E3,7.46E2,6.82E2,1.121E3,3.17E2,2.19E2,7.36E2,7.8E1,6.39E2,1.1E2,3.09E2,3.9E1,1.64E3,4.21E2,5.44E2,2.02E2,6.24E2,5.8E1,7.45E2,3.76E2,2.28E2,8.9E1,8.1E1,1.38E2,6.2E2,1.16E2,1.21E2,5.18E2,4.2E1,6.8E1,2.03E2,1.06E2,3E1,9E0,7.96E2,8.44E2,2.89E2,1.32E2,3.06E2,2.38E2,1.71E2,3.1E1,4.2E2,2.04E2,3.4E1,2.4E1,5.93E2,1.52E2,3.2E2,5.6E1],"tree_param":{"num_deleted":"0","num_feature":"41","num_nodes":"61","size_leaf_vector":"1"}},{"base_weights":[9.2752906E-4,-4.0550372E-1,9.152524E-1,-1.152178E0,-1.3058579E-1,5.235509E-1,1.3538697E0,-1.3969195E0,-5.5185336E-1,-2.2993624E-2,-6.8817997E-1,1.8461186E-1,7.6529133E-1,1.1367629E0,1.80077E0,-1.6915572E0,-1.0555322E0,-1.0483412E0,-3.993462E-1,-1.4172438E-1,5.905736E-1,-9.7204703E-1,-3.968121E-1,-2.7032292E-1,3.2230315E-1,6.5278745E-1,1.1450495E0,7.513875E-1,1.2673271E0,1.1561497E0,1.8827739E0,-5.4616716E-2,-3.6274236E-2,-2.4159653E-2,-4.5000132E-2,-3.834245E-2,-2.210524E-2,-1.7118517E-2,-1.0444153E-3,-6.906143E-3,1.4678641E-2,1.1073375E-2,3.5523124E-2,-2.197664E-2,-3.9519645E-2,-2.7444262E-2,-5.3793136E-3,-3.0441588E-2,-5.176333E-3,3.5420656E-3,1.3329212E-2,1.3606582E-2,2.2859067E-2,2.9671079E-2,4.0231045E-2,6.645203E-3,2.4791457E-2,3.457517E-2,4.4592727E-2,8.377881E-3,3.731021E-2,5.104337E-2,6.498173E-2],"categories":[],"categories_nodes":[],"categories_segments":[],"categories_sizes":[],"default_left":[0,0,0,0,0,0,0,0,0,0,0,0,0,0,0,0,0,0,0,0,0,0,0,0,0,0,0,0,0,0,0,0,0,0,0,0,0,0,0,0,0,0,0,0,0,0,0,0,0,0,0,0,0,0,0,0,0,0,0,0,0,0,0],"id":9,"left_children":[1,3,5,7,9,11,13,15,17,19,21,23,25,27,29,31,33,35,37,39,41,43,45,47,49,51,53,55,57,59,61,-1,-1,-1,-1,-1,-1,-1,-1,-1,-1,-1,-1,-1,-1,-1,-1,-1,-1,-1,-1,-1,-1,-1,-1,-1,-1,-1,-1,-1,-1,-1,-1],"loss_changes":[2.6130452E3,9.9812714E2,3.694342E2,1.8980762E2,2.1318704E2,9.322223E1,9.3305664E1,8.83988E1,2.7438828E1,2.1754381E2,4.6102203E1,3.0330349E1,2.6145966E1,3.1904968E1,1.1518311E1,2.4825073E1,4.4919586E1,3.4067001E0,1.8200401E1,1.3995546E2,6.1968124E1,2.0942627E1,3.1572426E1,7.208231E0,8.858242E0,1.0034241E1,7.3817444E-1,6.3025513E0,8.159851E0,1.8441048E0,5.4891357E0,0E0,0E0,0E0,0E0,0E0,0E0,0E0,0E0,0E0,0E0,0E0,0E0,0E0,0E0,0E0,0E0,0E0,0E0,0E0,0E0,0E0,0E0,0E0,0E0,0E0,0E0,0E0,0E0,0E0,0E0,0E0,0E0],"parents":[2147483647,0,0,1,1,2,2,3,3,4,4,5,5,6,6,7,7,8,8,9,9,10,10,11,11,12,12,13,13,14,14,15,15,16,16,17,17,18,18,19,19,20,20,21,21,22,22,23,23,24,24,25,25,26,26,27,27,28,28,29,29,30,30],"right_children":[2,4,6,8,10,12,14,16,18,20,22,24,26,28,30,32,34,36,38,40,42,44,46,48,50,52,54,56,58,60,62,-1,-1,-1,-1,-1,-1,-1,-1,-1,-1,-1,-1,-1,-1,-1,-1,-1,-1,-1,-1,-1,-1,-1,-1,-1,-1,-1,-1,-1,-1,-1,-1],"split_conditions":[1.5573369E1,1E1,1.6454569E1,1.4038655E1,3.2E1,-1.1764706E1,1.7182806E1,2.3E1,-4.7916668E1,-1E0,1.4557448E1,-4.7916668E1,4.474E1,-2.174E1,-3.143E1,7E1,1.0126671E1,1.484513E1,1.5039287E1,6.6E1,5.5E1,3.5E1,-4.615E1,-8.2E1,1.5856731E1,1.5894952E1,1E2,-5.4545456E1,1.4285714E1,-5.9090908E1,1.7686712E1,-5.4616716E-2,-3.6274236E-2,-2.4159653E-2,-4.5000132E-2,-3.834245E-2,-2.210524E-2,-1.7118517E-2,-1.0444153E-3,-6.906143E-3,1.4678641E-2,1.1073375E-2,3.5523124E-2,-2.197664E-2,-3.9519645E-2,-2.7444262E-2,-5.3793136E-3,-3.0441588E-2,-5.176333E-3,3.5420656E-3,1.3329212E-2,1.3606582E-2,2.2859067E-2,2.9671079E-2,4.0231045E-2,6.645203E-3,2.4791457E-2,3.457517E-2,4.4592727E-2,8.377881E-3,3.731021E-2,5.104337E-2,6.498173E-2],"split_indices":[0,34,0,0,2,1,0,2,1,30,0,1,29,29,29,24,0,0,0,24,24,2,29,1,0,0,1,1,1,1,0,0,0,0,0,0,0,0,0,0,0,0,0,0,0,0,0,0,0,0,0,0,0,0,0,0,0,0,0,0,0,0,0],"split_type":[0,0,0,0,0,0,0,0,0,0,0,0,0,0,0,0,0,0,0,0,0,0,0,0,0,0,0,0,0,0,0,0,0,0,0,0,0,0,0,0,0,0,0,0,0,0,0,0,0,0,0,0,0,0,0,0,0,0,0,0,0,0,0],"sum_hessian":[7.027E3,4.865E3,2.162E3,1.307E3,3.558E3,1.145E3,1.017E3,9.26E2,3.81E2,2.985E3,5.73E2,4.79E2,6.66E2,6.9E2,3.27E2,4.92E2,4.34E2,8.6E1,2.95E2,2.503E3,4.82E2,2.87E2,2.86E2,1.1E2,3.69E2,5.19E2,1.47E2,1.79E2,5.11E2,4.1E1,2.86E2,3.83E2,1.09E2,2.82E2,1.52E2,4.5E1,4.1E1,1.99E2,9.6E1,2.197E3,3.06E2,3.54E2,1.28E2,1.74E2,1.13E2,8.2E1,2.04E2,1E1,1E2,1.41E2,2.28E2,1.89E2,3.3E2,9E1,5.7E1,2.4E1,1.55E2,3.45E2,1.66E2,5E0,3.6E1,1.84E2,1.02E2],"tree_param":{"num_deleted":"0","num_feature":"41","num_nodes":"63","size_leaf_vector":"1"}},{"base_weights":[1.5854035E-3,-1.0020772E0,2.5129405E-1,-1.5108624E0,-6.6253155E-1,-6.2675653E-3,7.807015E-1,-3.8653862E-1,-1.6071934E0,-5.2857214E-1,-1.4712557E0,-2.1876809E-1,4.0049908E-1,2.846499E-1,1.0171014E0,-5.749017E-1,1.0387455E-1,-1.928413E0,-1.3618987E0,-4.351229E-1,-8.8427097E-1,-1.2306027E0,-5.6484114E-2,-3.8060108E-1,8.841545E-2,5.929115E-1,-1.3243544E-1,6.74805E-2,7.2237986E-1,7.9277444E-1,1.488697E0,-1.9467381E-3,-1.9167319E-2,-3.906201E-3,1.1234615E-2,-6.630695E-2,-4.461685E-2,-5.0161574E-2,-3.164812E-2,-1.7174343E-2,-5.7220915E-3,-1.4458389E-2,-3.242132E-2,-1.0152962E-2,-3.8588542E-2,-1.5769416E-2,-3.0056543E-3,-3.4873607E-4,1.6152708E-2,1.3367509E-2,3.0762458E-2,9.3440246E-4,-2.3847401E-2,-2.1426145E-3,2.3530582E-2,2.5240686E-2,-9.932254E-3,2.6113395E-2,-2.6466746E-3,4.9020886E-2,2.0141E-2],"categories":[],"categories_nodes":[],"categories_segments":[],"categories_sizes":[],"default_left":[0,0,0,0,0,0,0,0,0,0,0,0,0,0,0,0,0,0,0,0,0,0,0,0,0,0,0,0,0,0,0,0,0,0,0,0,0,0,0,0,0,0,0,0,0,0,0,0,0,0,0,0,0,0,0,0,0,0,0,0,0],"id":10,"left_children":[1,3,5,7,9,11,13,15,17,19,21,23,25,27,29,31,33,35,37,39,41,43,-1,45,47,49,51,53,55,57,59,-1,-1,-1,-1,-1,-1,-1,-1,-1,-1,-1,-1,-1,-1,-1,-1,-1,-1,-1,-1,-1,-1,-1,-1,-1,-1,-1,-1,-1,-1],"loss_changes":[1.7574985E3,2.382511E2,7.663032E2,5.808777E1,8.866382E1,3.2682047E2,2.1442334E2,4.6966076E0,3.3444458E1,2.2702866E1,5.4960938E0,1.2374879E2,1.3338579E2,5.6259315E1,1.2810364E2,7.077637E-1,1.1064965E0,1.8433228E1,2.3479858E1,1.88693E1,9.87381E0,2.3409119E0,0E0,6.583768E1,3.8902054E1,5.9139435E1,3.7818913E1,4.0497356E1,2.5503494E1,5.8572327E1,4.3929565E1,0E0,0E0,0E0,0E0,0E0,0E0,0E0,0E0,0E0,0E0,0E0,0E0,0E0,0E0,0E0,0E0,0E0,0E0,0E0,0E0,0E0,0E0,0E0,0E0,0E0,0E0,0E0,0E0,0E0,0E0],"parents":[2147483647,0,0,1,1,2,2,3,3,4,4,5,5,6,6,7,7,8,8,9,9,10,10,11,11,12,12,13,13,14,14,15,15,16,16,17,17,18,18,19,19,20,20,21,21,23,23,24,24,25,25,26,26,27,27,28,28,29,29,30,30],"right_children":[2,4,6,8,10,12,14,16,18,20,22,24,26,28,30,32,34,36,38,40,42,44,-1,46,48,50,52,54,56,58,60,-1,-1,-1,-1,-1,-1,-1,-1,-1,-1,-1,-1,-1,-1,-1,-1,-1,-1,-1,-1,-1,-1,-1,-1,-1,-1,-1,-1,-1,-1],"split_conditions":[9E0,2.3E1,4.3243244E-1,-8.333333E0,3.4E1,-3E0,1.3E1,0E0,-8E0,1E0,3.7E1,1.2903225E-1,3E1,-2E0,-2E0,1E1,-3.1034483E1,3.3040937E-2,1.2012012E-3,-3E0,-7.4074073E0,8E0,-5.6484114E-2,5.793651E-1,3.548387E-1,1.6216215E-1,3.4E1,4.8086944E-1,3.3E1,3.3E1,3.1E1,-1.9467381E-3,-1.9167319E-2,-3.906201E-3,1.1234615E-2,-6.630695E-2,-4.461685E-2,-5.0161574E-2,-3.164812E-2,-1.7174343E-2,-5.7220915E-3,-1.4458389E-2,-3.242132E-2,-1.0152962E-2,-3.8588542E-2,-1.5769416E-2,-3.0056543E-3,-3.4873607E-4,1.6152708E-2,1.3367509E-2,3.0762458E-2,9.3440246E-4,-2.3847401E-2,-2.1426145E-3,2.3530582E-2,2.5240686E-2,-9.932254E-3,2.6113395E-2,-2.6466746E-3,4.9020886E-2,2.0141E-2],"split_indices":[34,2,25,1,2,30,14,30,30,38,2,31,2,30,30,8,1,12,12,30,1,8,0,12,31,31,2,32,2,2,2,0,0,0,0,0,0,0,0,0,0,0,0,0,0,0,0,0,0,0,0,0,0,0,0,0,0,0,0,0,0],"split_type":[0,0,0,0,0,0,0,0,0,0,0,0,0,0,0,0,0,0,0,0,0,0,0,0,0,0,0,0,0,0,0,0,0,0,0,0,0,0,0,0,0,0,0,0,0,0,0,0,0,0,0,0,0,0,0,0,0,0,0,0,0],"sum_hessian":[7.01E3,1.395E3,5.615E3,5.55E2,8.4E2,3.778E3,1.837E3,4.5E1,5.1E2,7.24E2,1.16E2,2.483E3,1.295E3,5.95E2,1.242E3,3.3E1,1.2E1,2.14E2,2.96E2,5.78E2,1.46E2,7.9E1,3.7E1,1.627E3,8.56E2,9.52E2,3.43E2,4E2,1.95E2,8.46E2,3.96E2,5E0,2.8E1,6E0,6E0,1.25E2,8.9E1,1.42E2,1.54E2,3.67E2,2.11E2,5.1E1,9.5E1,6E0,7.3E1,1.07E3,5.57E2,7.01E2,1.55E2,7.14E2,2.38E2,2.76E2,6.7E1,3.36E2,6.4E1,1.76E2,1.9E1,7.78E2,6.8E1,3.34E2,6.2E1],"tree_param":{"num_deleted":"0","num_feature":"41","num_nodes":"61","size_leaf_vector":"1"}},{"base_weights":[4.840996E-3,-3.6382186E-1,9.4302934E-1,-1.0852995E0,-1.3469401E-1,6.4131117E-1,1.4122311E0,-1.3261173E0,-4.889923E-1,-3.5559425E-1,1.10164195E-1,2.6539388E-1,8.0183494E-1,1.1808152E0,1.7326108E0,-1.600682E0,-1.0549889E0,-8.34032E-1,-1.9502644E-1,-4.366091E-1,1.4745195E-1,7.5896797E-3,9.505345E-1,-3.0411613E-1,3.5072416E-1,6.750757E-1,1.0397406E0,9.1171277E-1,1.3341243E0,1.1134189E0,1.806641E0,-5.2716758E-2,-3.8639E-2,-4.5098502E-2,-2.6582753E-2,-3.9051663E-2,-2.0235289E-2,-1.3403272E-2,1.9820149E-3,-1.6945008E-2,-1.4096175E-3,2.1457109E-3,2.2762576E-2,4.6549626E-3,-1.0069715E-2,3.3663373E-2,-4.420637E-3,-1.3209422E-2,6.268368E-4,5.7730223E-3,1.6287379E-2,1.5700603E-2,2.6330313E-2,2.7623193E-2,3.7741106E-2,6.350624E-3,2.8884562E-2,3.7410103E-2,4.797564E-2,1.0527743E-2,3.564024E-2,4.809785E-2,6.0722183E-2],"categories":[],"categories_nodes":[],"categories_segments":[],"categories_sizes":[],"default_left":[0,0,0,0,0,0,0,0,0,0,0,0,0,0,0,0,0,0,0,0,0,0,0,0,0,0,0,0,0,0,0,0,0,0,0,0,0,0,0,0,0,0,0,0,0,0,0,0,0,0,0,0,0,0,0,0,0,0,0,0,0,0,0],"id":11,"left_children":[1,3,5,7,9,11,13,15,17,19,21,23,25,27,29,31,33,35,37,39,41,43,45,47,49,51,53,55,57,59,61,-1,-1,-1,-1,-1,-1,-1,-1,-1,-1,-1,-1,-1,-1,-1,-1,-1,-1,-1,-1,-1,-1,-1,-1,-1,-1,-1,-1,-1,-1,-1,-1],"loss_changes":[2.4286738E3,8.32263E2,2.7760535E2,1.7212769E2,2.0725467E2,7.205664E1,5.176245E1,5.9538574E1,3.4964912E1,8.235228E1,1.5604677E2,1.8022928E1,2.3251343E1,1.5257141E1,9.139526E0,1.4707153E1,2.953186E1,9.2675705E0,1.3001036E1,8.6369995E1,1.2472519E1,8.212553E1,3.7927643E1,2.352868E0,9.158268E0,1.5564011E1,4.099243E0,5.194275E0,1.1699219E0,6.716881E-1,4.1222534E0,0E0,0E0,0E0,0E0,0E0,0E0,0E0,0E0,0E0,0E0,0E0,0E0,0E0,0E0,0E0,0E0,0E0,0E0,0E0,0E0,0E0,0E0,0E0,0E0,0E0,0E0,0E0,0E0,0E0,0E0,0E0,0E0],"parents":[2147483647,0,0,1,1,2,2,3,3,4,4,5,5,6,6,7,7,8,8,9,9,10,10,11,11,12,12,13,13,14,14,15,15,16,16,17,17,18,18,19,19,20,20,21,21,22,22,23,23,24,24,25,25,26,26,27,27,28,28,29,29,30,30],"right_children":[2,4,6,8,10,12,14,16,18,20,22,24,26,28,30,32,34,36,38,40,42,44,46,48,50,52,54,56,58,60,62,-1,-1,-1,-1,-1,-1,-1,-1,-1,-1,-1,-1,-1,-1,-1,-1,-1,-1,-1,-1,-1,-1,-1,-1,-1,-1,-1,-1,-1,-1,-1,-1],"split_conditions":[1.5761421E1,5.263158E-2,1.6618872E1,1.4077875E1,2.3E1,-2E1,1.7182806E1,2E0,-3.25E1,6.6E1,6.6E1,-5.9090908E1,1.5E1,-1.1111111E1,-3.143E1,2.4E1,1E0,-6.25E1,1.484513E1,1.4946913E1,4.557E-1,3E1,3.2E1,1.6235878E1,1.6185755E1,1.6185755E1,6.6666664E1,-5.9090908E1,2.7272728E1,2.8125E-1,1.7516813E1,-5.2716758E-2,-3.8639E-2,-4.5098502E-2,-2.6582753E-2,-3.9051663E-2,-2.0235289E-2,-1.3403272E-2,1.9820149E-3,-1.6945008E-2,-1.4096175E-3,2.1457109E-3,2.2762576E-2,4.6549626E-3,-1.0069715E-2,3.3663373E-2,-4.420637E-3,-1.3209422E-2,6.268368E-4,5.7730223E-3,1.6287379E-2,1.5700603E-2,2.6330313E-2,2.7623193E-2,3.7741106E-2,6.350624E-3,2.8884562E-2,3.7410103E-2,4.797564E-2,1.0527743E-2,3.564024E-2,4.809785E-2,6.0722183E-2],"split_indices":[0,25,0,0,13,1,0,13,1,24,24,1,1,1,29,2,7,1,0,0,23,2,2,0,0,0,1,1,1,25,0,0,0,0,0,0,0,0,0,0,0,0,0,0,0,0,0,0,0,0,0,0,0,0,0,0,0,0,0,0,0,0,0],"split_type":[0,0,0,0,0,0,0,0,0,0,0,0,0,0,0,0,0,0,0,0,0,0,0,0,0,0,0,0,0,0,0,0,0,0,0,0,0,0,0,0,0,0,0,0,0,0,0,0,0,0,0,0,0,0,0,0,0,0,0,0,0,0,0],"sum_hessian":[7.017E3,5.038E3,1.979E3,1.212E3,3.826E3,1.208E3,7.71E2,8.61E2,3.51E2,2.012E3,1.814E3,3.64E2,8.44E2,4.54E2,3.17E2,4.22E2,4.39E2,1.59E2,1.92E2,1.734E3,2.78E2,1.619E3,1.95E2,4.6E1,3.18E2,5.57E2,2.87E2,1.71E2,2.83E2,3.8E1,2.79E2,2.74E2,1.48E2,1.15E2,3.24E2,3.6E1,1.23E2,9.8E1,9.4E1,1.303E3,4.31E2,2.5E2,2.8E1,1.134E3,4.85E2,1.69E2,2.6E1,3.3E1,1.3E1,1.78E2,1.4E2,3.24E2,2.33E2,1.94E2,9.3E1,1.3E1,1.58E2,2.23E2,6E1,5E0,3.3E1,1.54E2,1.25E2],"tree_param":{"num_deleted":"0","num_feature":"41","num_nodes":"63","size_leaf_vector":"1"}},{"base_weights":[7.565326E-3,-3.8433108E-1,8.485585E-1,-1.0847728E0,-1.4894317E-1,4.978389E-1,1.2733504E0,-1.3598096E0,-5.9502786E-1,-3.4766448E-1,1.2694664E-1,1.8104115E-1,7.1671206E-1,1.0104984E0,1.5960209E0,-1.6271603E0,-9.941813E-1,-1.0647825E0,-4.181823E-1,-2.9047132E-1,-9.8927075E-1,1.2586523E-2,9.4760966E-1,-2.1297349E-1,3.123966E-1,6.061563E-1,1.0336658E0,7.457037E-1,1.1829525E0,1.0431633E0,1.6728299E0,-5.2766915E-2,-3.4278154E-2,-2.2755805E-2,-4.5621872E-2,-3.975049E-2,-2.0940697E-2,-1.8549535E-2,-1.3821861E-3,-1.1367644E-2,1.3147626E-3,-3.5907865E-2,-1.771942E-2,3.3483952E-3,-1.6420186E-2,3.9090015E-2,1.0147227E-2,-2.4803715E-2,-3.3461235E-3,5.2146004E-3,1.4299822E-2,1.37752555E-2,2.2297243E-2,2.7610695E-2,4.115327E-2,-0E0,2.33947E-2,3.2413293E-2,4.127017E-2,8.706711E-3,3.3169728E-2,4.5367572E-2,5.893885E-2],"categories":[],"categories_nodes":[],"categories_segments":[],"categories_sizes":[],"default_left":[0,0,0,0,0,0,0,0,0,0,0,0,0,0,0,0,0,0,0,0,0,0,0,0,0,0,0,0,0,0,0,0,0,0,0,0,0,0,0,0,0,0,0,0,0,0,0,0,0,0,0,0,0,0,0,0,0,0,0,0,0,0,0],"id":12,"left_children":[1,3,5,7,9,11,13,15,17,19,21,23,25,27,29,31,33,35,37,39,41,43,45,47,49,51,53,55,57,59,61,-1,-1,-1,-1,-1,-1,-1,-1,-1,-1,-1,-1,-1,-1,-1,-1,-1,-1,-1,-1,-1,-1,-1,-1,-1,-1,-1,-1,-1,-1,-1,-1],"loss_changes":[2.3244387E3,7.921112E2,3.3186597E2,1.6025415E2,1.9773376E2,8.4716644E1,8.130371E1,7.09176E1,3.483748E1,7.569916E1,1.4111739E2,2.6423052E1,2.3401855E1,2.3026428E1,1.4260742E1,2.2744385E1,3.7749023E1,8.400986E0,2.3665394E1,5.720903E1,1.176442E1,7.348329E1,3.814572E1,7.253822E0,8.204582E0,9.697403E0,3.3781128E0,5.838333E0,2.4569092E0,1.5306091E0,1.0640381E1,0E0,0E0,0E0,0E0,0E0,0E0,0E0,0E0,0E0,0E0,0E0,0E0,0E0,0E0,0E0,0E0,0E0,0E0,0E0,0E0,0E0,0E0,0E0,0E0,0E0,0E0,0E0,0E0,0E0,0E0,0E0,0E0],"parents":[2147483647,0,0,1,1,2,2,3,3,4,4,5,5,6,6,7,7,8,8,9,9,10,10,11,11,12,12,13,13,14,14,15,15,16,16,17,17,18,18,19,19,20,20,21,21,22,22,23,23,24,24,25,25,26,26,27,27,28,28,29,29,30,30],"right_children":[2,4,6,8,10,12,14,16,18,20,22,24,26,28,30,32,34,36,38,40,42,44,46,48,50,52,54,56,58,60,62,-1,-1,-1,-1,-1,-1,-1,-1,-1,-1,-1,-1,-1,-1,-1,-1,-1,-1,-1,-1,-1,-1,-1,-1,-1,-1,-1,-1,-1,-1,-1,-1],"split_conditions":[1.5573369E1,7.1428575E-2,1.6489658E1,1.362314E1,3.5632183E1,-1.1764706E1,1.7034386E1,2.3E1,-4.167E1,3.4E1,6.6E1,-4.615E1,3.5714287E1,-1.1111111E1,-3.143E1,7E1,1.0126671E1,1.484513E1,1.4914124E1,5.7E1,1.4557448E1,3.2E1,1.3554147E1,-7.6E1,1.5967273E1,1.5967273E1,1.2E2,-6.6666664E1,2.1052631E1,-5.9090908E1,1.7516813E1,-5.2766915E-2,-3.4278154E-2,-2.2755805E-2,-4.5621872E-2,-3.975049E-2,-2.0940697E-2,-1.8549535E-2,-1.3821861E-3,-1.1367644E-2,1.3147626E-3,-3.5907865E-2,-1.771942E-2,3.3483952E-3,-1.6420186E-2,3.9090015E-2,1.0147227E-2,-2.4803715E-2,-3.3461235E-3,5.2146004E-3,1.4299822E-2,1.37752555E-2,2.2297243E-2,2.7610695E-2,4.115327E-2,-0E0,2.33947E-2,3.2413293E-2,4.127017E-2,8.706711E-3,3.3169728E-2,4.5367572E-2,5.893885E-2],"split_indices":[0,25,0,0,21,1,0,2,29,2,24,29,1,1,29,24,0,0,0,24,0,2,0,1,0,0,1,1,1,1,0,0,0,0,0,0,0,0,0,0,0,0,0,0,0,0,0,0,0,0,0,0,0,0,0,0,0,0,0,0,0,0,0],"split_type":[0,0,0,0,0,0,0,0,0,0,0,0,0,0,0,0,0,0,0,0,0,0,0,0,0,0,0,0,0,0,0,0,0,0,0,0,0,0,0,0,0,0,0,0,0,0,0,0,0,0,0,0,0,0,0,0,0,0,0,0,0,0,0],"sum_hessian":[7.048E3,4.808E3,2.24E3,1.207E3,3.601E3,1.23E3,1.01E3,7.7E2,4.37E2,2.094E3,1.507E3,5.05E2,7.25E2,5.62E2,4.48E2,4.4E2,3.3E2,1.16E2,3.21E2,1.926E3,1.68E2,1.325E3,1.82E2,1.25E2,3.8E2,5.43E2,1.82E2,2.27E2,3.35E2,5.9E1,3.89E2,3.41E2,9.9E1,2.32E2,9.8E1,6.4E1,5.2E1,2.07E2,1.14E2,1.524E3,4.02E2,1.07E2,6.1E1,1.128E3,1.97E2,1.13E2,6.9E1,1.5E1,1.1E2,2.1E2,1.7E2,2.68E2,2.75E2,1.43E2,3.9E1,1E1,2.17E2,2.29E2,1.06E2,6E0,5.3E1,2.6E2,1.29E2],"tree_param":{"num_deleted":"0","num_feature":"41","num_nodes":"63","size_leaf_vector":"1"}},{"base_weights":[-4.1915397E-3,-4.1922295E-1,7.136318E-1,-1.056518E0,-1.6300394E-1,4.006167E-1,1.1998743E0,-1.2263652E0,-5.695962E-1,-2.74311E-1,3.4644267E-1,-3.4572523E-2,5.5415195E-1,9.680156E-1,1.526657E0,-1.5960848E0,-1.0486784E0,-8.7638617E-1,-3.0867037E-1,-3.5447982E-1,2.1576579E-1,7.1464694E-1,-9.4448626E-2,-6.1024165E-1,6.975976E-2,4.4041643E-1,8.8113564E-1,5.626816E-1,1.0721375E0,9.708264E-1,1.6139683E0,-5.127105E-2,-3.316198E-2,-3.9371695E-2,-2.5874134E-2,-3.687694E-2,-2.0708103E-2,-1.5739497E-2,-4.419811E-3,-1.4391843E-2,-1.9002451E-3,-1.9490214E-2,1.1306047E-2,6.8537695E-3,2.9925257E-2,-1.7158845E-2,7.4048387E-3,-2.6908997E-2,-1.14257485E-2,-1.3580165E-3,8.998326E-3,9.438721E-3,1.9144578E-2,2.3296174E-2,3.7111446E-2,-0E0,1.8716725E-2,2.9752698E-2,3.9671164E-2,3.3095577E-3,3.1010002E-2,4.2796634E-2,5.5829328E-2],"categories":[],"categories_nodes":[],"categories_segments":[],"categories_sizes":[],"default_left":[0,0,0,0,0,0,0,0,0,0,0,0,0,0,0,0,0,0,0,0,0,0,0,0,0,0,0,0,0,0,0,0,0,0,0,0,0,0,0,0,0,0,0,0,0,0,0,0,0,0,0,0,0,0,0,0,0,0,0,0,0,0,0],"id":13,"left_children":[1,3,5,7,9,11,13,15,17,19,21,23,25,27,29,31,33,35,37,39,41,43,45,47,49,51,53,55,57,59,61,-1,-1,-1,-1,-1,-1,-1,-1,-1,-1,-1,-1,-1,-1,-1,-1,-1,-1,-1,-1,-1,-1,-1,-1,-1,-1,-1,-1,-1,-1,-1,-1],"loss_changes":[2.0966108E3,7.273063E2,3.9061328E2,1.0339856E2,1.8070274E2,1.0533426E2,7.217053E1,5.7411133E1,2.5682991E1,1.0296275E2,9.314013E1,2.50404E1,4.1814667E1,2.31297E1,1.5665405E1,1.1552185E1,2.8321533E1,7.3251114E0,5.956089E0,8.167651E1,5.1661476E1,4.18387E1,4.297852E1,2.8871288E0,9.395115E0,2.0712418E1,8.128464E0,4.163784E0,5.6937256E0,2.5525703E0,9.434387E0,0E0,0E0,0E0,0E0,0E0,0E0,0E0,0E0,0E0,0E0,0E0,0E0,0E0,0E0,0E0,0E0,0E0,0E0,0E0,0E0,0E0,0E0,0E0,0E0,0E0,0E0,0E0,0E0,0E0,0E0,0E0,0E0],"parents":[2147483647,0,0,1,1,2,2,3,3,4,4,5,5,6,6,7,7,8,8,9,9,10,10,11,11,12,12,13,13,14,14,15,15,16,16,17,17,18,18,19,19,20,20,21,21,22,22,23,23,24,24,25,25,26,26,27,27,28,28,29,29,30,30],"right_children":[2,4,6,8,10,12,14,16,18,20,22,24,26,28,30,32,34,36,38,40,42,44,46,48,50,52,54,56,58,60,62,-1,-1,-1,-1,-1,-1,-1,-1,-1,-1,-1,-1,-1,-1,-1,-1,-1,-1,-1,-1,-1,-1,-1,-1,-1,-1,-1,-1,-1,-1,-1,-1],"split_conditions":[1.5404746E1,1E1,1.64182E1,1.4077875E1,5.9E1,-2.5E1,1.7034386E1,1E0,-3.25E1,-1E0,1.0126671E1,-6E1,2.5E1,-2.631579E1,-3.25E1,1.2899222E1,2E0,-5.9090908E1,1.469098E1,1.2903225E-1,-5.882353E0,1.7E1,2.2727273E0,-7.6E1,1.5919645E1,1.5919645E1,1.054054E2,-6.6666664E1,2.1052631E1,-6.25E1,1.750439E1,-5.127105E-2,-3.316198E-2,-3.9371695E-2,-2.5874134E-2,-3.687694E-2,-2.0708103E-2,-1.5739497E-2,-4.419811E-3,-1.4391843E-2,-1.9002451E-3,-1.9490214E-2,1.1306047E-2,6.8537695E-3,2.9925257E-2,-1.7158845E-2,7.4048387E-3,-2.6908997E-2,-1.14257485E-2,-1.3580165E-3,8.998326E-3,9.438721E-3,1.9144578E-2,2.3296174E-2,3.7111446E-2,-0E0,1.8716725E-2,2.9752698E-2,3.9671164E-2,3.3095577E-3,3.1010002E-2,4.2796634E-2,5.5829328E-2],"split_indices":[0,34,0,0,24,1,0,7,1,30,0,1,1,1,1,0,13,1,0,31,1,13,1,1,0,0,1,1,1,1,0,0,0,0,0,0,0,0,0,0,0,0,0,0,0,0,0,0,0,0,0,0,0,0,0,0,0,0,0,0,0,0,0],"split_type":[0,0,0,0,0,0,0,0,0,0,0,0,0,0,0,0,0,0,0,0,0,0,0,0,0,0,0,0,0,0,0,0,0,0,0,0,0,0,0,0,0,0,0,0,0,0,0,0,0,0,0,0,0,0,0,0,0,0,0,0,0,0,0],"sum_hessian":[7.034E3,4.458E3,2.576E3,1.276E3,3.182E3,1.57E3,1.006E3,9.43E2,3.33E2,2.613E3,5.69E2,4.09E2,1.161E3,5.94E2,4.12E2,3E2,6.43E2,1.5E2,1.83E2,2.247E3,3.66E2,3.1E2,2.59E2,6.2E1,3.47E2,8.66E2,2.95E2,1.25E2,4.69E2,6E1,3.52E2,2.39E2,6.1E1,2.6E2,3.83E2,4.7E1,1.03E2,7.5E1,1.08E2,1.569E3,6.78E2,5.6E1,3.1E2,1.16E2,1.94E2,1.08E2,1.51E2,2.4E1,3.8E1,2.31E2,1.16E2,5.34E2,3.32E2,2.34E2,6.1E1,1.3E1,1.12E2,3.64E2,1.05E2,5E0,5.5E1,2.09E2,1.43E2],"tree_param":{"num_deleted":"0","num_feature":"41","num_nodes":"63","size_leaf_vector":"1"}},{"base_weights":[-5.195298E-3,-4.112532E-1,7.1487564E-1,-1.0494895E0,-1.5993115E-1,4.00821E-1,1.1874496E0,-1.2290838E0,-5.46168E-1,-2.5999233E-1,4.2804942E-1,8.769548E-2,6.034972E-1,9.452284E-1,1.4949135E0,-1.4923594E0,-9.2602915E-1,-3.5215095E-2,-4.263785E-1,-3.5596532E-1,2.5234407E-1,2.2134805E-1,9.6364164E-1,-3.1730404E-1,2.0629156E-1,5.051376E-1,9.7433084E-1,5.440767E-1,1.0479662E0,8.986347E-1,1.562723E0,-5.9091523E-2,-3.9910752E-2,-2.1022892E-2,-3.9347466E-2,-1.9661909E-2,-7.926736E-3,-2.5905833E-2,-8.918664E-3,1.6959675E-2,-1.1727387E-2,2.3827292E-3,2.6209006E-2,3.4935262E-2,1.30916E-3,-2.5591161E-2,-5.7292143E-3,1.6725245E-3,1.1498192E-2,1.15235895E-2,2.0532727E-2,2.4579005E-2,3.554571E-2,-3.6806094E-3,1.7539212E-2,2.893028E-2,3.877999E-2,5.148002E-4,2.9484944E-2,4.243526E-2,5.5652425E-2],"categories":[],"categories_nodes":[],"categories_segments":[],"categories_sizes":[],"default_left":[0,0,0,0,0,0,0,0,0,0,0,0,0,0,0,0,0,0,0,0,0,0,0,0,0,0,0,0,0,0,0,0,0,0,0,0,0,0,0,0,0,0,0,0,0,0,0,0,0,0,0,0,0,0,0,0,0,0,0,0,0],"id":14,"left_children":[1,3,5,7,9,11,13,15,17,19,21,23,25,27,29,31,33,-1,35,37,39,41,43,45,47,49,51,53,55,57,59,-1,-1,-1,-1,-1,-1,-1,-1,-1,-1,-1,-1,-1,-1,-1,-1,-1,-1,-1,-1,-1,-1,-1,-1,-1,-1,-1,-1,-1,-1],"loss_changes":[2.0793325E3,7.2857184E2,3.787876E2,1.1383508E2,1.9229053E2,9.753554E1,7.206653E1,7.1345825E1,2.3913239E1,1.3756453E2,5.156703E1,2.9374535E1,3.2416595E1,2.188501E1,1.39939575E1,3.1852661E1,3.580478E1,0E0,1.0000496E1,6.901291E1,8.931377E1,3.1415577E1,2.3502884E1,8.491944E0,1.2366501E1,1.5104111E1,3.3555603E0,3.701149E0,5.729828E0,3.251358E0,1.0319824E1,0E0,0E0,0E0,0E0,0E0,0E0,0E0,0E0,0E0,0E0,0E0,0E0,0E0,0E0,0E0,0E0,0E0,0E0,0E0,0E0,0E0,0E0,0E0,0E0,0E0,0E0,0E0,0E0,0E0,0E0],"parents":[2147483647,0,0,1,1,2,2,3,3,4,4,5,5,6,6,7,7,8,8,9,9,10,10,11,11,12,12,13,13,14,14,15,15,16,16,18,18,19,19,20,20,21,21,22,22,23,23,24,24,25,25,26,26,27,27,28,28,29,29,30,30],"right_children":[2,4,6,8,10,12,14,16,18,20,22,24,26,28,30,32,34,-1,36,38,40,42,44,46,48,50,52,54,56,58,60,-1,-1,-1,-1,-1,-1,-1,-1,-1,-1,-1,-1,-1,-1,-1,-1,-1,-1,-1,-1,-1,-1,-1,-1,-1,-1,-1,-1,-1,-1],"split_conditions":[1.5404746E1,1E1,1.6454569E1,1.4038655E1,2.2580644E-1,-1.333E1,1.7034386E1,5.29E2,-5.2E1,-1E0,-4E0,-4.7916668E1,4.474E1,-2.7272728E1,-3.478E1,-1.1E1,1.0126671E1,-3.5215095E-2,1.4557448E1,-3.25E1,8.41E2,5.2E-1,9E2,-7.6E1,1.5856731E1,1.5919645E1,1E2,-7E1,2.1052631E1,-7E1,1.7516813E1,-5.9091523E-2,-3.9910752E-2,-2.1022892E-2,-3.9347466E-2,-1.9661909E-2,-7.926736E-3,-2.5905833E-2,-8.918664E-3,1.6959675E-2,-1.1727387E-2,2.3827292E-3,2.6209006E-2,3.4935262E-2,1.30916E-3,-2.5591161E-2,-5.7292143E-3,1.6725245E-3,1.1498192E-2,1.15235895E-2,2.0532727E-2,2.4579005E-2,3.554571E-2,-3.6806094E-3,1.7539212E-2,2.893028E-2,3.877999E-2,5.148002E-4,2.9484944E-2,4.243526E-2,5.5652425E-2],"split_indices":[0,34,0,0,31,29,0,3,1,30,30,1,29,1,29,30,0,0,0,1,3,25,3,1,0,0,1,1,1,1,0,0,0,0,0,0,0,0,0,0,0,0,0,0,0,0,0,0,0,0,0,0,0,0,0,0,0,0,0,0,0],"split_type":[0,0,0,0,0,0,0,0,0,0,0,0,0,0,0,0,0,0,0,0,0,0,0,0,0,0,0,0,0,0,0,0,0,0,0,0,0,0,0,0,0,0,0,0,0,0,0,0,0,0,0,0,0,0,0,0,0,0,0,0,0],"sum_hessian":[7.108E3,4.546E3,2.562E3,1.282E3,3.264E3,1.542E3,1.02E3,9.42E2,3.4E2,2.791E3,4.73E2,6.08E2,9.34E2,5.76E2,4.44E2,4.99E2,4.43E2,5.1E1,2.89E2,2.352E3,4.39E2,3.44E2,1.29E2,1.36E2,4.72E2,7.43E2,1.91E2,1.21E2,4.55E2,4.9E1,3.95E2,1.2E2,3.79E2,2.84E2,1.59E2,1.16E2,1.73E2,2.4E2,2.112E3,2.96E2,1.43E2,2.85E2,5.9E1,1.05E2,2.4E1,2.3E1,1.13E2,2.58E2,2.14E2,4.49E2,2.94E2,1.17E2,7.4E1,6E0,1.15E2,3.48E2,1.07E2,5E0,4.4E1,2.71E2,1.24E2],"tree_param":{"num_deleted":"0","num_feature":"41","num_nodes":"61","size_leaf_vector":"1"}},{"base_weights":[5.271722E-3,-3.921053E-1,6.9206524E-1,-1.0582789E0,-1.5572268E-1,3.8500267E-1,1.1417156E0,-1.2482879E0,-6.1913896E-1,-3.2872853E-1,1.5438007E-1,9.411469E-2,5.772332E-1,9.4806266E-1,1.4869554E0,-1.4866589E0,-9.458451E-1,-3.951022E-2,-5.054745E-1,-2.6829797E-1,-1.0075464E0,3.163199E-1,-3.1681597E-1,-4.3304503E-1,1.6679786E-1,4.8675263E-1,9.4663525E-1,6.812677E-1,1.0922545E0,1.1035062E0,1.597014E0,-2.235982E-2,-4.7181316E-2,-2.194893E-2,-4.320027E-2,-2.2473078E-2,-7.937532E-3,-1.189546E-2,2.9575066E-3,-3.553688E-2,-1.8686587E-2,5.344428E-3,3.023839E-2,-3.9623408E-3,-1.733843E-2,-2.3990206E-2,-8.046648E-3,1.6335006E-3,1.12353E-2,1.045548E-2,1.9009199E-2,2.4719372E-2,3.629869E-2,4.8341835E-3,2.2114303E-2,2.9861657E-2,3.791312E-2,1.00538535E-2,3.462629E-2,4.50422E-2,5.8575902E-2],"categories":[],"categories_nodes":[],"categories_segments":[],"categories_sizes":[],"default_left":[0,0,0,0,0,0,0,0,0,0,0,0,0,0,0,0,0,0,0,0,0,0,0,0,0,0,0,0,0,0,0,0,0,0,0,0,0,0,0,0,0,0,0,0,0,0,0,0,0,0,0,0,0,0,0,0,0,0,0,0,0],"id":15,"left_children":[1,3,5,7,9,11,13,15,17,19,21,23,25,27,29,31,33,-1,35,37,39,41,43,45,47,49,51,53,55,57,59,-1,-1,-1,-1,-1,-1,-1,-1,-1,-1,-1,-1,-1,-1,-1,-1,-1,-1,-1,-1,-1,-1,-1,-1,-1,-1,-1,-1,-1,-1],"loss_changes":[1.9149252E3,6.9886847E2,3.534756E2,9.456201E1,1.7632028E2,8.5221344E1,6.562793E1,5.4295166E1,2.5996246E1,8.533542E1,8.993535E1,2.3498823E1,2.9144989E1,2.3553528E1,1.0739746E1,2.5075806E1,3.5233124E1,0E0,1.7289902E1,9.14859E1,9.26416E0,8.285713E1,1.4012838E1,3.5088167E0,1.2369518E1,1.4194656E1,2.7381134E0,6.3754883E0,3.548462E0,1.9880676E0,1.9951782E0,0E0,0E0,0E0,0E0,0E0,0E0,0E0,0E0,0E0,0E0,0E0,0E0,0E0,0E0,0E0,0E0,0E0,0E0,0E0,0E0,0E0,0E0,0E0,0E0,0E0,0E0,0E0,0E0,0E0,0E0],"parents":[2147483647,0,0,1,1,2,2,3,3,4,4,5,5,6,6,7,7,8,8,9,9,10,10,11,11,12,12,13,13,14,14,15,15,16,16,18,18,19,19,20,20,21,21,22,22,23,23,24,24,25,25,26,26,27,27,28,28,29,29,30,30],"right_children":[2,4,6,8,10,12,14,16,18,20,22,24,26,28,30,32,34,-1,36,38,40,42,44,46,48,50,52,54,56,58,60,-1,-1,-1,-1,-1,-1,-1,-1,-1,-1,-1,-1,-1,-1,-1,-1,-1,-1,-1,-1,-1,-1,-1,-1,-1,-1,-1,-1,-1,-1],"split_conditions":[1.5404746E1,8E0,1.64182E1,1.3764218E1,4.2857143E1,-1.333E1,1.7096422E1,5.29E2,-5.833E1,1.156E3,9E2,-5.833E1,4.474E1,-1.25E1,-2E1,9E0,1.0126671E1,-3.951022E-2,1.4557448E1,-3E0,1.4557448E1,-1E0,1.089E3,-7.6E1,1.5919645E1,1.5876024E1,1.2222E2,-5.429E1,2E1,-5.833E1,1.7909855E1,-2.235982E-2,-4.7181316E-2,-2.194893E-2,-4.320027E-2,-2.2473078E-2,-7.937532E-3,-1.189546E-2,2.9575066E-3,-3.553688E-2,-1.8686587E-2,5.344428E-3,3.023839E-2,-3.9623408E-3,-1.733843E-2,-2.3990206E-2,-8.046648E-3,1.6335006E-3,1.12353E-2,1.045548E-2,1.9009199E-2,2.4719372E-2,3.629869E-2,4.8341835E-3,2.2114303E-2,2.9861657E-2,3.791312E-2,1.00538535E-2,3.462629E-2,4.50422E-2,5.8575902E-2],"split_indices":[0,34,0,0,21,29,0,3,29,3,3,29,29,29,29,8,0,0,0,30,0,30,3,29,0,0,29,29,29,29,0,0,0,0,0,0,0,0,0,0,0,0,0,0,0,0,0,0,0,0,0,0,0,0,0,0,0,0,0,0,0],"split_type":[0,0,0,0,0,0,0,0,0,0,0,0,0,0,0,0,0,0,0,0,0,0,0,0,0,0,0,0,0,0,0,0,0,0,0,0,0,0,0,0,0,0,0,0,0,0,0,0,0,0,0,0,0,0,0,0,0,0,0,0,0],"sum_hessian":[7.012E3,4.442E3,2.57E3,1.161E3,3.281E3,1.53E3,1.04E3,8.07E2,3.54E2,2.107E3,1.174E3,6.11E2,9.19E2,6.72E2,3.68E2,4.46E2,3.61E2,4.6E1,3.08E2,1.938E3,1.69E2,8.75E2,2.99E2,7.2E1,5.39E2,7.43E2,1.76E2,2.41E2,4.31E2,8.8E1,2.8E2,4.9E1,3.97E2,2.56E2,1.05E2,1.5E2,1.58E2,1.437E3,5.01E2,1.12E2,5.7E1,7.32E2,1.43E2,1.78E2,1.21E2,1.9E1,5.3E1,3.53E2,1.86E2,3.88E2,3.55E2,1.27E2,4.9E1,2.5E1,2.16E2,2.86E2,1.45E2,7E0,8.1E1,2.3E2,5E1],"tree_param":{"num_deleted":"0","num_feature":"41","num_nodes":"61","size_leaf_vector":"1"}},{"base_weights":[-2.7885127E-3,-3.957053E-1,6.727881E-1,-1.0252928E0,-1.5872234E-1,3.6315396E-1,1.1095892E0,-1.2245375E0,-5.858091E-1,-2.7248272E-1,2.8994223E-1,-4.178778E-2,5.0079876E-1,8.8448197E-1,1.404942E0,-1.4758888E0,-8.9980197E-1,-1.0361394E0,-4.304343E-1,-2.0356765E-1,-7.866931E-1,7.5031215E-1,-7.37922E-2,-6.1521876E-1,4.4011492E-2,3.8806084E-1,7.615238E-1,4.3427047E-1,9.603454E-1,1.2664007E0,5.0492533E-2,-4.9006317E-2,-2.8722962E-2,-2.0718241E-2,-4.1833576E-2,-3.527999E-2,-2.048128E-2,-1.854612E-2,-6.6308323E-3,-1.096092E-2,7.139303E-5,-2.96702E-2,-1.2586535E-2,1.04640685E-2,3.134384E-2,-5.3015663E-3,2.4323119E-2,-2.0045768E-2,-5.970546E-4,-1.7088372E-3,7.543152E-3,7.0746164E-3,1.5711984E-2,1.9557714E-2,3.0686434E-2,3.585495E-4,1.47110475E-2,2.6591804E-2,3.632308E-2,2.9600484E-2,4.25107E-2],"categories":[],"categories_nodes":[],"categories_segments":[],"categories_sizes":[],"default_left":[0,0,0,0,0,0,0,0,0,0,0,0,0,0,0,0,0,0,0,0,0,0,0,0,0,0,0,0,0,0,0,0,0,0,0,0,0,0,0,0,0,0,0,0,0,0,0,0,0,0,0,0,0,0,0,0,0,0,0,0,0],"id":16,"left_children":[1,3,5,7,9,11,13,15,17,19,21,23,25,27,29,31,33,35,37,39,41,43,45,47,49,51,53,55,57,59,-1,-1,-1,-1,-1,-1,-1,-1,-1,-1,-1,-1,-1,-1,-1,-1,-1,-1,-1,-1,-1,-1,-1,-1,-1,-1,-1,-1,-1,-1,-1],"loss_changes":[1.8632897E3,6.61388E2,3.4753418E2,1.0387622E2,1.6490723E2,8.4658875E1,6.7443726E1,6.406616E1,2.5173248E1,9.0505325E1,1.0979542E2,1.928174E1,3.207837E1,1.9405304E1,1.1911011E1,3.358441E1,3.5214783E1,2.210266E0,1.0670647E1,7.602307E1,2.0972E1,3.2745026E1,3.3292038E1,1.2376957E0,7.163223E0,1.5793732E1,7.5108337E0,1.9403954E0,6.4721375E0,9.273315E0,0E0,0E0,0E0,0E0,0E0,0E0,0E0,0E0,0E0,0E0,0E0,0E0,0E0,0E0,0E0,0E0,0E0,0E0,0E0,0E0,0E0,0E0,0E0,0E0,0E0,0E0,0E0,0E0,0E0,0E0,0E0],"parents":[2147483647,0,0,1,1,2,2,3,3,4,4,5,5,6,6,7,7,8,8,9,9,10,10,11,11,12,12,13,13,14,14,15,15,16,16,17,17,18,18,19,19,20,20,21,21,22,22,23,23,24,24,25,25,26,26,27,27,28,28,29,29],"right_children":[2,4,6,8,10,12,14,16,18,20,22,24,26,28,30,32,34,36,38,40,42,44,46,48,50,52,54,56,58,60,-1,-1,-1,-1,-1,-1,-1,-1,-1,-1,-1,-1,-1,-1,-1,-1,-1,-1,-1,-1,-1,-1,-1,-1,-1,-1,-1,-1,-1,-1,-1],"split_conditions":[1.5404746E1,9E0,1.64182E1,1.362314E1,5.7E1,-2.631579E1,1.7034386E1,2.3E1,-4.167E1,3.3E1,6.931472E-1,-6.25E1,1.7647058E1,-3.548387E1,1.7516813E1,7E1,1.0126671E1,1.484513E1,1.464842E1,7.393263E0,1.4557448E1,1.3E1,2.9032257E-1,1.6235878E1,1.5919645E1,1.5803385E1,7.2413795E1,-6.6666664E1,2.1052631E1,-1.25E1,5.0492533E-2,-4.9006317E-2,-2.8722962E-2,-2.0718241E-2,-4.1833576E-2,-3.527999E-2,-2.048128E-2,-1.854612E-2,-6.6308323E-3,-1.096092E-2,7.139303E-5,-2.96702E-2,-1.2586535E-2,1.04640685E-2,3.134384E-2,-5.3015663E-3,2.4323119E-2,-2.0045768E-2,-5.970546E-4,-1.7088372E-3,7.543152E-3,7.0746164E-3,1.5711984E-2,1.9557714E-2,3.0686434E-2,3.585495E-4,1.47110475E-2,2.6591804E-2,3.632308E-2,2.9600484E-2,4.25107E-2],"split_indices":[0,34,0,0,24,1,0,2,29,2,4,1,1,1,0,24,0,0,0,11,0,14,31,0,0,0,1,1,1,1,0,0,0,0,0,0,0,0,0,0,0,0,0,0,0,0,0,0,0,0,0,0,0,0,0,0,0,0,0,0,0],"split_type":[0,0,0,0,0,0,0,0,0,0,0,0,0,0,0,0,0,0,0,0,0,0,0,0,0,0,0,0,0,0,0,0,0,0,0,0,0,0,0,0,0,0,0,0,0,0,0,0,0,0,0,0,0,0,0,0,0,0,0,0,0],"sum_hessian":[7.016E3,4.437E3,2.579E3,1.211E3,3.226E3,1.512E3,1.067E3,8.3E2,3.81E2,2.575E3,6.51E2,3.83E2,1.129E3,6.11E2,4.56E2,4.63E2,3.67E2,9.4E1,2.87E2,2.274E3,3.01E2,2.87E2,3.64E2,4.9E1,3.34E2,7.93E2,3.36E2,9.1E1,5.2E2,3.13E2,1.43E2,3.51E2,1.12E2,2.62E2,1.05E2,6.3E1,3.1E1,1.48E2,1.39E2,1.274E3,1E3,1.91E2,1.1E2,1.24E2,1.63E2,3.28E2,3.6E1,4.4E1,5E0,2.24E2,1.1E2,3.78E2,4.15E2,2.43E2,9.3E1,1.2E1,7.9E1,4.1E2,1.1E2,1.16E2,1.97E2],"tree_param":{"num_deleted":"0","num_feature":"41","num_nodes":"61","size_leaf_vector":"1"}},{"base_weights":[-1.0363057E-2,-7.835177E-1,2.1281248E-1,-1.1855582E0,-5.342024E-1,-3.028847E-2,7.1233374E-1,-1.5413857E0,-9.2244077E-1,-4.3812537E-1,-1.1734416E0,-2.0045303E-1,3.059347E-1,4.4423E-1,1.0067463E0,-1.8946418E0,-1.228431E0,-1.2144934E0,-5.1545775E-1,-5.3860843E-1,1.6456242E-1,-1.2641984E0,-4.6569893E-1,-3.5123375E-1,7.967995E-2,5.0902396E-1,-4.543262E-2,5.1398855E-1,-3.736124E-1,1.102221E0,4.5155656E-1,-6.491733E-2,-3.7797894E-2,-4.877548E-2,-2.3492832E-2,-3.7988555E-2,3.4871674E-3,-2.298736E-2,6.743899E-3,-1.3269068E-2,-2.9251926E-2,-2.2783123E-3,1.02190375E-2,-3.161153E-2,-4.725381E-2,-5.1335595E-3,-1.8514182E-2,-1.4912325E-2,-2.992827E-3,-0E0,1.5469161E-2,9.307476E-3,2.4711449E-2,1.7718023E-3,-2.2048114E-2,1.0950576E-2,2.684827E-2,-1.2549522E-3,-2.1799043E-2,2.756669E-2,4.333426E-2,1.7709723E-2,-7.439678E-3],"categories":[],"categories_nodes":[],"categories_segments":[],"categories_sizes":[],"default_left":[0,0,0,0,0,0,0,0,0,0,0,0,0,0,0,0,0,0,0,0,0,0,0,0,0,0,0,0,0,0,0,0,0,0,0,0,0,0,0,0,0,0,0,0,0,0,0,0,0,0,0,0,0,0,0,0,0,0,0,0,0,0,0],"id":17,"left_children":[1,3,5,7,9,11,13,15,17,19,21,23,25,27,29,31,33,35,37,39,41,43,45,47,49,51,53,55,57,59,61,-1,-1,-1,-1,-1,-1,-1,-1,-1,-1,-1,-1,-1,-1,-1,-1,-1,-1,-1,-1,-1,-1,-1,-1,-1,-1,-1,-1,-1,-1,-1,-1],"loss_changes":[1.2062202E3,1.5484125E2,6.5892126E2,5.1818237E1,5.7801086E1,2.0884113E2,1.3856525E2,2.1421814E1,3.9365265E1,5.1719086E1,5.9866486E0,1.0262049E2,8.7764084E1,5.3740356E1,4.296515E1,1.214801E1,2.0850052E1,1.4722534E1,2.8462223E1,2.9029083E1,5.3503485E0,2.4995575E0,1.976676E-1,5.7476715E1,2.9706385E1,4.758786E1,3.284643E1,4.7635544E1,8.222296E0,4.121527E1,1.2889458E1,0E0,0E0,0E0,0E0,0E0,0E0,0E0,0E0,0E0,0E0,0E0,0E0,0E0,0E0,0E0,0E0,0E0,0E0,0E0,0E0,0E0,0E0,0E0,0E0,0E0,0E0,0E0,0E0,0E0,0E0,0E0,0E0],"parents":[2147483647,0,0,1,1,2,2,3,3,4,4,5,5,6,6,7,7,8,8,9,9,10,10,11,11,12,12,13,13,14,14,15,15,16,16,17,17,18,18,19,19,20,20,21,21,22,22,23,23,24,24,25,25,26,26,27,27,28,28,29,29,30,30],"right_children":[2,4,6,8,10,12,14,16,18,20,22,24,26,28,30,32,34,36,38,40,42,44,46,48,50,52,54,56,58,60,62,-1,-1,-1,-1,-1,-1,-1,-1,-1,-1,-1,-1,-1,-1,-1,-1,-1,-1,-1,-1,-1,-1,-1,-1,-1,-1,-1,-1,-1,-1,-1,-1],"split_conditions":[1.1E1,5.29E2,5.9E1,-8E0,1.156E3,-3E0,4.695946E1,3E0,2E0,6.6E1,1.1764706E-1,1.2903225E-1,8.41E2,1.089E3,9.61E2,4.41E2,5E1,9E1,6.3E1,1E0,2E0,1.369E3,1.225E3,5.945946E-1,3.846154E-1,2.9E1,1.156E3,-1E0,1.225E3,-2E0,1.225E3,-6.491733E-2,-3.7797894E-2,-4.877548E-2,-2.3492832E-2,-3.7988555E-2,3.4871674E-3,-2.298736E-2,6.743899E-3,-1.3269068E-2,-2.9251926E-2,-2.2783123E-3,1.02190375E-2,-3.161153E-2,-4.725381E-2,-5.1335595E-3,-1.8514182E-2,-1.4912325E-2,-2.992827E-3,-0E0,1.5469161E-2,9.307476E-3,2.4711449E-2,1.7718023E-3,-2.2048114E-2,1.0950576E-2,2.684827E-2,-1.2549522E-3,-2.1799043E-2,2.756669E-2,4.333426E-2,1.7709723E-2,-7.439678E-3],"split_indices":[34,3,24,30,3,30,21,13,13,24,25,31,3,3,3,3,24,24,24,38,13,3,3,12,31,13,3,30,3,30,3,0,0,0,0,0,0,0,0,0,0,0,0,0,0,0,0,0,0,0,0,0,0,0,0,0,0,0,0,0,0,0,0],"split_type":[0,0,0,0,0,0,0,0,0,0,0,0,0,0,0,0,0,0,0,0,0,0,0,0,0,0,0,0,0,0,0,0,0,0,0,0,0,0,0,0,0,0,0,0,0,0,0,0,0,0,0,0,0,0,0,0,0,0,0,0,0,0,0],"sum_hessian":[6.985E3,1.564E3,5.421E3,5.95E2,9.69E2,3.647E3,1.774E3,2.48E2,3.47E2,8.46E2,1.23E2,2.423E3,1.224E3,9.32E2,8.42E2,1.11E2,1.37E2,1.99E2,1.48E2,7.26E2,1.2E2,1.07E2,1.6E1,1.576E3,8.47E2,7.76E2,4.48E2,8.6E2,7.2E1,7.16E2,1.26E2,7.4E1,3.7E1,6.9E1,6.8E1,1.92E2,7E0,1.11E2,3.7E1,5.99E2,1.27E2,5E1,7E1,7E1,3.7E1,8E0,8E0,9.95E2,5.81E2,7.17E2,1.3E2,4.79E2,2.97E2,3.9E2,5.8E1,6.22E2,2.38E2,3.9E1,3.3E1,4.72E2,2.44E2,1.06E2,2E1],"tree_param":{"num_deleted":"0","num_feature":"41","num_nodes":"63","size_leaf_vector":"1"}},{"base_weights":[5.7629207E-3,-3.0046412E-1,7.5536436E-1,-8.604482E-1,-9.5460236E-2,5.4261786E-1,1.2196296E0,-1.0241524E0,-2.6891914E-1,-2.9016632E-1,1.15663186E-1,2.0659311E-1,6.871127E-1,1.0638846E0,1.53196E0,-1.2419168E0,-8.310826E-1,-6.374016E-1,-3.8236145E-2,-4.0227965E-1,2.6090352E-2,1.8831229E-2,8.491641E-1,-1.6356458E-1,3.1546217E-1,5.4890865E-1,8.6379445E-1,7.799042E-1,1.2046391E0,2.661734E-2,1.5881495E0,-4.8224322E-2,-2.9903797E-2,-2.1611642E-2,-4.0042855E-2,-3.0273592E-2,-1.3577694E-2,-5.3573623E-3,4.2058E-3,-1.649334E-2,-1.7930096E-3,5.8879484E-3,-1.2599934E-2,-2.0306888E-3,1.5006822E-2,3.0437632E-2,-4.0202183E-3,-1.5199138E-2,-9.5543667E-4,5.0681597E-3,1.4499723E-2,1.377385E-2,2.4918908E-2,2.3724874E-2,3.4286484E-2,1.1434597E-2,2.5565034E-2,3.3941686E-2,4.3762963E-2,4.290154E-2,5.4956295E-2],"categories":[],"categories_nodes":[],"categories_segments":[],"categories_sizes":[],"default_left":[0,0,0,0,0,0,0,0,0,0,0,0,0,0,0,0,0,0,0,0,0,0,0,0,0,0,0,0,0,0,0,0,0,0,0,0,0,0,0,0,0,0,0,0,0,0,0,0,0,0,0,0,0,0,0,0,0,0,0,0,0],"id":18,"left_children":[1,3,5,7,9,11,13,15,17,19,21,23,25,27,29,31,33,35,37,39,41,43,45,47,49,51,53,55,57,-1,59,-1,-1,-1,-1,-1,-1,-1,-1,-1,-1,-1,-1,-1,-1,-1,-1,-1,-1,-1,-1,-1,-1,-1,-1,-1,-1,-1,-1,-1,-1],"loss_changes":[1.6302444E3,5.780591E2,2.0126318E2,1.2953107E2,1.5196257E2,6.807004E1,2.6817749E1,4.1297363E1,2.4774218E1,6.8392105E1,1.2539267E2,1.7507595E1,2.2494904E1,1.463623E1,3.515442E0,3.949048E1,2.866217E1,6.118572E0,4.7018967E0,7.141853E1,3.8313084E1,6.559245E1,3.421602E1,4.1269584E0,7.7255363E0,1.2807083E1,5.9615173E0,3.1136322E0,7.6504517E-1,0E0,4.1235352E-1,0E0,0E0,0E0,0E0,0E0,0E0,0E0,0E0,0E0,0E0,0E0,0E0,0E0,0E0,0E0,0E0,0E0,0E0,0E0,0E0,0E0,0E0,0E0,0E0,0E0,0E0,0E0,0E0,0E0,0E0],"parents":[2147483647,0,0,1,1,2,2,3,3,4,4,5,5,6,6,7,7,8,8,9,9,10,10,11,11,12,12,13,13,14,14,15,15,16,16,17,17,18,18,19,19,20,20,21,21,22,22,23,23,24,24,25,25,26,26,27,27,28,28,30,30],"right_children":[2,4,6,8,10,12,14,16,18,20,22,24,26,28,30,32,34,36,38,40,42,44,46,48,50,52,54,56,58,-1,60,-1,-1,-1,-1,-1,-1,-1,-1,-1,-1,-1,-1,-1,-1,-1,-1,-1,-1,-1,-1,-1,-1,-1,-1,-1,-1,-1,-1,-1,-1],"split_conditions":[1.5671808E1,1.0526316E-1,1.6759949E1,1.464842E1,2.3E1,-2E1,1.7399029E1,2.3E1,-3.6E1,-3E0,6.6E1,-5.2E1,1.6235878E1,-1.818E1,-3.6E1,-8E0,3.4E1,-6.25E1,1.5096445E1,1.486283E1,3E1,-1E0,3.2E1,-7E1,1.6185755E1,3.333E1,3.514E1,-5E1,3.333E1,2.661734E-2,1.7909855E1,-4.8224322E-2,-2.9903797E-2,-2.1611642E-2,-4.0042855E-2,-3.0273592E-2,-1.3577694E-2,-5.3573623E-3,4.2058E-3,-1.649334E-2,-1.7930096E-3,5.8879484E-3,-1.2599934E-2,-2.0306888E-3,1.5006822E-2,3.0437632E-2,-4.0202183E-3,-1.5199138E-2,-9.5543667E-4,5.0681597E-3,1.4499723E-2,1.377385E-2,2.4918908E-2,2.3724874E-2,3.4286484E-2,1.1434597E-2,2.5565034E-2,3.3941686E-2,4.3762963E-2,4.290154E-2,5.4956295E-2],"split_indices":[0,25,0,0,13,29,0,2,29,30,24,29,0,29,29,30,2,29,0,0,2,30,2,29,0,29,29,29,29,0,0,0,0,0,0,0,0,0,0,0,0,0,0,0,0,0,0,0,0,0,0,0,0,0,0,0,0,0,0,0,0],"split_type":[0,0,0,0,0,0,0,0,0,0,0,0,0,0,0,0,0,0,0,0,0,0,0,0,0,0,0,0,0,0,0,0,0,0,0,0,0,0,0,0,0,0,0,0,0,0,0,0,0,0,0,0,0,0,0,0,0,0,0,0,0],"sum_hessian":[7.097E3,5.039E3,2.058E3,1.348E3,3.691E3,1.415E3,6.43E2,1.054E3,2.94E2,1.921E3,1.77E3,4.28E2,9.87E2,4.36E2,2.07E2,4.89E2,5.65E2,1.11E2,1.83E2,1.419E3,5.02E2,1.566E3,2.04E2,9.6E1,3.32E2,5.6E2,4.27E2,1.5E2,2.86E2,2E1,1.87E2,1.91E2,2.98E2,4.68E2,9.7E1,3.3E1,7.8E1,1.04E2,7.9E1,9.9E2,4.29E2,3.65E2,1.37E2,1.328E3,2.38E2,1.75E2,2.9E1,2.4E1,7.2E1,1.81E2,1.51E2,4.3E2,1.3E2,3.46E2,8.1E1,2.6E1,1.24E2,2.32E2,5.4E1,1.23E2,6.4E1],"tree_param":{"num_deleted":"0","num_feature":"41","num_nodes":"61","size_leaf_vector":"1"}},{"base_weights":[-2.8501682E-3,-3.5651243E-1,6.11955E-1,-9.536399E-1,-1.4132892E-1,3.3905807E-1,1.0275581E0,-1.1444372E0,-5.2206326E-1,-3.547052E-2,-5.4427785E-1,2.2033004E-1,5.319561E-1,8.4597135E-1,1.3512422E0,-1.5224285E0,-9.592913E-1,-6.595812E-1,-2.5002834E-1,-1.7841066E-1,3.108333E-1,-4.2710444E-1,-9.0689903E-1,3.1043673E-1,3.8599264E-2,5.8700657E-1,2.4424312E-1,8.6992025E-1,4.7208884E-1,3.7803743E-2,5.1299606E-2,-4.939224E-2,-3.2847043E-2,-3.0666368E-2,-4.6592643E-3,-4.122261E-3,-2.072847E-2,-3.5566047E-3,-1.1037947E-2,-1.0985275E-2,3.8103602E-4,2.9188115E-3,2.0869168E-2,-1.525349E-2,-5.2564526E-3,-3.3214565E-2,-1.3201974E-2,2.1183447E-3,1.0077794E-2,-3.4401715E-3,3.983881E-3,1.4087515E-2,1.981931E-2,7.249134E-4,1.02351485E-2,2.4595791E-2,3.1211436E-2,3.319858E-3,1.6272262E-2],"categories":[],"categories_nodes":[],"categories_segments":[],"categories_sizes":[],"default_left":[0,0,0,0,0,0,0,0,0,0,0,0,0,0,0,0,0,0,0,0,0,0,0,0,0,0,0,0,0,0,0,0,0,0,0,0,0,0,0,0,0,0,0,0,0,0,0,0,0,0,0,0,0,0,0,0,0,0,0],"id":19,"left_children":[1,3,5,7,9,11,13,15,17,19,21,23,25,27,29,31,33,35,37,39,41,43,45,47,49,51,53,55,57,-1,-1,-1,-1,-1,-1,-1,-1,-1,-1,-1,-1,-1,-1,-1,-1,-1,-1,-1,-1,-1,-1,-1,-1,-1,-1,-1,-1,-1,-1],"loss_changes":[1.5214725E3,5.7007294E2,2.8839984E2,9.480786E1,1.3911241E2,3.479657E1,5.6038452E1,5.2734863E1,1.2869904E1,1.2835057E2,2.7408707E1,1.555442E1,8.579117E0,4.3635864E0,5.9403076E0,8.964172E0,2.7017914E1,3.3269958E0,1.6381841E0,6.610523E1,6.1671783E1,1.0093819E1,1.348999E1,3.6677742E0,4.702893E0,3.0426636E0,1.9127088E0,2.5778198E0,6.9711494E-1,0E0,0E0,0E0,0E0,0E0,0E0,0E0,0E0,0E0,0E0,0E0,0E0,0E0,0E0,0E0,0E0,0E0,0E0,0E0,0E0,0E0,0E0,0E0,0E0,0E0,0E0,0E0,0E0,0E0,0E0],"parents":[2147483647,0,0,1,1,2,2,3,3,4,4,5,5,6,6,7,7,8,8,9,9,10,10,11,11,12,12,13,13,14,14,15,15,16,16,17,17,18,18,19,19,20,20,21,21,22,22,23,23,24,24,25,25,26,26,27,27,28,28],"right_children":[2,4,6,8,10,12,14,16,18,20,22,24,26,28,30,32,34,36,38,40,42,44,46,48,50,52,54,56,58,-1,-1,-1,-1,-1,-1,-1,-1,-1,-1,-1,-1,-1,-1,-1,-1,-1,-1,-1,-1,-1,-1,-1,-1,-1,-1,-1,-1,-1,-1],"split_conditions":[1.5404746E1,8E0,1.6454569E1,1.362314E1,3.1E1,1.5919645E1,1.7129696E1,1E0,1.484513E1,5.2E1,3.5E1,3E1,3.1E1,3.2E1,1.7909855E1,4.8520303E0,1.6260162E-1,2.1E1,2.9E1,2.8E1,4.642857E1,7.05848E-1,7.7016525E0,8E0,7.0157123E0,1.5E1,3.975976E-1,1.6920097E1,2.6E1,3.7803743E-2,5.1299606E-2,-4.939224E-2,-3.2847043E-2,-3.0666368E-2,-4.6592643E-3,-4.122261E-3,-2.072847E-2,-3.5566047E-3,-1.1037947E-2,-1.0985275E-2,3.8103602E-4,2.9188115E-3,2.0869168E-2,-1.525349E-2,-5.2564526E-3,-3.3214565E-2,-1.3201974E-2,2.1183447E-3,1.0077794E-2,-3.4401715E-3,3.983881E-3,1.4087515E-2,1.981931E-2,7.249134E-4,1.02351485E-2,2.4595791E-2,3.1211436E-2,3.319858E-3,1.6272262E-2],"split_indices":[0,34,0,0,2,0,0,7,0,24,2,2,2,2,0,11,17,2,2,34,21,12,11,34,11,14,12,0,34,0,0,0,0,0,0,0,0,0,0,0,0,0,0,0,0,0,0,0,0,0,0,0,0,0,0,0,0,0,0],"split_type":[0,0,0,0,0,0,0,0,0,0,0,0,0,0,0,0,0,0,0,0,0,0,0,0,0,0,0,0,0,0,0,0,0,0,0,0,0,0,0,0,0,0,0,0,0,0,0,0,0,0,0,0,0,0,0,0,0,0,0],"sum_hessian":[6.994E3,4.441E3,2.553E3,1.174E3,3.267E3,1.544E3,1.009E3,8.11E2,3.63E2,2.59E3,6.77E2,9.6E2,5.84E2,6.52E2,3.57E2,2.61E2,5.5E2,2.38E2,1.25E2,1.835E3,7.55E2,5.16E2,1.61E2,6.39E2,3.21E2,4.87E2,9.7E1,6.09E2,4.3E1,2.93E2,6.4E1,1.97E2,6.4E1,5.09E2,4.1E1,1.5E1,2.23E2,6.3E1,6.2E1,9.26E2,9.09E2,4.88E2,2.67E2,3.87E2,1.29E2,1.1E2,5.1E1,6.4E1,5.75E2,1.2E2,2.01E2,1.96E2,2.91E2,3.2E1,6.5E1,4.82E2,1.27E2,9E0,3.4E1],"tree_param":{"num_deleted":"0","num_feature":"41","num_nodes":"59","size_leaf_vector":"1"}},{"base_weights":[6.165988E-3,-3.4268132E-1,6.01842E-1,-8.865679E-1,-1.3770087E-1,3.3363757E-1,9.9828345E-1,-1.0581363E0,-5.228039E-1,-2.4113731E-1,2.7266538E-1,-4.3420374E-2,4.564974E-1,8.2635903E-1,1.3499824E0,-1.2511536E0,-7.342418E-1,-8.9365804E-1,-3.8842595E-1,-1.7468672E-1,-7.3431826E-1,7.1706986E-1,-6.58793E-2,-5.55453E-1,4.4569537E-2,3.5868737E-1,7.376779E-1,6.186713E-1,9.730751E-1,1.2427986E0,5.098932E-2,-5.235633E-2,-3.3254858E-2,-1.6201897E-2,-3.8608328E-2,-3.2578275E-2,-2.0197775E-2,-1.749794E-2,-6.4815134E-3,-8.586474E-3,4.6090996E-3,-2.7436782E-2,-1.2404561E-2,6.838791E-3,2.720954E-2,-9.100724E-3,5.854303E-3,-2.4494933E-2,-9.0289805E-3,-1.3610593E-3,7.2105182E-3,7.608124E-3,1.5767004E-2,1.917557E-2,3.0243887E-2,9.093175E-3,2.0886885E-2,2.703853E-2,3.517802E-2,2.8183667E-2,4.0981017E-2],"categories":[],"categories_nodes":[],"categories_segments":[],"categories_sizes":[],"default_left":[0,0,0,0,0,0,0,0,0,0,0,0,0,0,0,0,0,0,0,0,0,0,0,0,0,0,0,0,0,0,0,0,0,0,0,0,0,0,0,0,0,0,0,0,0,0,0,0,0,0,0,0,0,0,0,0,0,0,0,0,0],"id":20,"left_children":[1,3,5,7,9,11,13,15,17,19,21,23,25,27,29,31,33,35,37,39,41,43,45,47,49,51,53,55,57,59,-1,-1,-1,-1,-1,-1,-1,-1,-1,-1,-1,-1,-1,-1,-1,-1,-1,-1,-1,-1,-1,-1,-1,-1,-1,-1,-1,-1,-1,-1,-1],"loss_changes":[1.4592979E3,4.9290417E2,2.7448108E2,7.368207E1,1.3675204E2,7.2096664E1,5.9867188E1,4.8434143E1,1.8249718E1,8.361171E1,9.791217E1,1.751547E1,3.1127792E1,1.9573639E1,7.0092163E0,3.0649536E1,3.1181198E1,1.9808426E0,9.188843E0,8.331284E1,1.6159164E1,2.512091E1,2.3045782E1,2.7364445E0,5.877179E0,1.4670517E1,5.8521423E0,6.420677E0,2.722229E0,6.299103E0,0E0,0E0,0E0,0E0,0E0,0E0,0E0,0E0,0E0,0E0,0E0,0E0,0E0,0E0,0E0,0E0,0E0,0E0,0E0,0E0,0E0,0E0,0E0,0E0,0E0,0E0,0E0,0E0,0E0,0E0,0E0],"parents":[2147483647,0,0,1,1,2,2,3,3,4,4,5,5,6,6,7,7,8,8,9,9,10,10,11,11,12,12,13,13,14,14,15,15,16,16,17,17,18,18,19,19,20,20,21,21,22,22,23,23,24,24,25,25,26,26,27,27,28,28,29,29],"right_children":[2,4,6,8,10,12,14,16,18,20,22,24,26,28,30,32,34,36,38,40,42,44,46,48,50,52,54,56,58,60,-1,-1,-1,-1,-1,-1,-1,-1,-1,-1,-1,-1,-1,-1,-1,-1,-1,-1,-1,-1,-1,-1,-1,-1,-1,-1,-1,-1,-1,-1,-1],"split_conditions":[1.5404746E1,9E0,1.64182E1,1.362314E1,5.7E1,-2.631579E1,1.7182806E1,2.4E1,-4.117647E1,3.3E1,6.931472E-1,-6.25E1,2.5E1,-1E1,1.7909855E1,-1.1E1,1.0126671E1,-5.7142857E1,1.4419827E1,-3E0,1.4557448E1,2.2E1,7.0647593E0,-7.6E1,1.5967273E1,1.5919645E1,1E2,-4.4444443E1,2.7272728E1,-1.3636364E1,5.098932E-2,-5.235633E-2,-3.3254858E-2,-1.6201897E-2,-3.8608328E-2,-3.2578275E-2,-2.0197775E-2,-1.749794E-2,-6.4815134E-3,-8.586474E-3,4.6090996E-3,-2.7436782E-2,-1.2404561E-2,6.838791E-3,2.720954E-2,-9.100724E-3,5.854303E-3,-2.4494933E-2,-9.0289805E-3,-1.3610593E-3,7.2105182E-3,7.608124E-3,1.5767004E-2,1.917557E-2,3.0243887E-2,9.093175E-3,2.0886885E-2,2.703853E-2,3.517802E-2,2.8183667E-2,4.0981017E-2],"split_indices":[0,34,0,0,24,1,0,2,1,2,4,1,1,1,0,30,0,1,0,30,0,2,11,1,0,0,1,1,1,1,0,0,0,0,0,0,0,0,0,0,0,0,0,0,0,0,0,0,0,0,0,0,0,0,0,0,0,0,0,0,0],"split_type":[0,0,0,0,0,0,0,0,0,0,0,0,0,0,0,0,0,0,0,0,0,0,0,0,0,0,0,0,0,0,0,0,0,0,0,0,0,0,0,0,0,0,0,0,0,0,0,0,0,0,0,0,0,0,0,0,0,0,0,0,0],"sum_hessian":[7.018E3,4.426E3,2.592E3,1.209E3,3.217E3,1.549E3,1.043E3,8.18E2,3.91E2,2.571E3,6.46E2,3.8E2,1.169E3,7.06E2,3.37E2,5.08E2,3.1E2,1E2,2.91E2,2.269E3,3.02E2,2.79E2,3.67E2,5.5E1,3.25E2,8.72E2,2.97E2,2.98E2,4.08E2,2.66E2,7.1E1,1.08E2,4E2,2.33E2,7.7E1,4.8E1,5.2E1,1.33E2,1.58E2,1.695E3,5.74E2,1.9E2,1.12E2,8E1,1.99E2,1.93E2,1.74E2,2.4E1,3.1E1,2.22E2,1.03E2,5.4E2,3.32E2,2.24E2,7.3E1,6.2E1,2.36E2,3.1E2,9.8E1,8.3E1,1.83E2],"tree_param":{"num_deleted":"0","num_feature":"41","num_nodes":"61","size_leaf_vector":"1"}},{"base_weights":[-8.588508E-4,-3.3765572E-1,5.8106774E-1,-8.7662363E-1,-1.3885872E-1,3.0822134E-1,9.4278824E-1,-1.0420609E0,-5.165407E-1,-6.4575434E-1,-5.3947043E-2,-6.45097E-2,4.304609E-1,7.5310117E-1,1.2187992E0,-1.413266E0,-8.657309E-1,-8.799394E-1,-3.7115678E-1,-1.0674759E0,-4.9065816E-1,-1.6106705E-1,3.2900953E-1,-5.7656485E-1,1.8842319E-2,3.603267E-1,8.0926555E-1,4.3208724E-1,8.3797604E-1,8.749767E-1,1.3152056E0,-4.388822E-2,-1.1205626E-2,-3.178793E-2,-1.8963525E-2,-3.0487696E-2,-1.6973129E-2,-1.7898602E-2,-6.265102E-3,-3.841648E-2,-2.7301623E-2,-2.9664649E-2,-1.1514939E-2,-7.7497796E-3,4.671575E-3,1.9866461E-2,1.3050282E-3,-2.3975499E-2,-9.324218E-3,-3.9241314E-3,3.8434884E-3,7.3370836E-3,1.4271054E-2,2.059495E-2,3.1842127E-2,5.8085498E-5,1.4345964E-2,2.2986416E-2,3.0901866E-2,-0E0,2.7519451E-2,3.46785E-2,4.5004062E-2],"categories":[],"categories_nodes":[],"categories_segments":[],"categories_sizes":[],"default_left":[0,0,0,0,0,0,0,0,0,0,0,0,0,0,0,0,0,0,0,0,0,0,0,0,0,0,0,0,0,0,0,0,0,0,0,0,0,0,0,0,0,0,0,0,0,0,0,0,0,0,0,0,0,0,0,0,0,0,0,0,0,0,0],"id":21,"left_children":[1,3,5,7,9,11,13,15,17,19,21,23,25,27,29,31,33,35,37,39,41,43,45,47,49,51,53,55,57,59,61,-1,-1,-1,-1,-1,-1,-1,-1,-1,-1,-1,-1,-1,-1,-1,-1,-1,-1,-1,-1,-1,-1,-1,-1,-1,-1,-1,-1,-1,-1,-1,-1],"loss_changes":[1.3800476E3,4.7722357E2,2.5352301E2,6.9689026E1,1.3998137E2,6.744319E1,5.5188354E1,5.008618E1,1.8956032E1,2.8718674E1,1.1476142E2,1.5879093E1,2.8374664E1,1.6704895E1,1.1419922E1,1.1417664E1,2.3267487E1,2.6414948E0,9.522106E0,6.996765E-1,1.6967758E1,6.754467E1,5.771586E1,2.0246716E0,5.1832056E0,1.2001419E1,2.961937E0,2.6143093E0,4.705139E0,3.7603455E0,5.335022E0,0E0,0E0,0E0,0E0,0E0,0E0,0E0,0E0,0E0,0E0,0E0,0E0,0E0,0E0,0E0,0E0,0E0,0E0,0E0,0E0,0E0,0E0,0E0,0E0,0E0,0E0,0E0,0E0,0E0,0E0,0E0,0E0],"parents":[2147483647,0,0,1,1,2,2,3,3,4,4,5,5,6,6,7,7,8,8,9,9,10,10,11,11,12,12,13,13,14,14,15,15,16,16,17,17,18,18,19,19,20,20,21,21,22,22,23,23,24,24,25,25,26,26,27,27,28,28,29,29,30,30],"right_children":[2,4,6,8,10,12,14,16,18,20,22,24,26,28,30,32,34,36,38,40,42,44,46,48,50,52,54,56,58,60,62,-1,-1,-1,-1,-1,-1,-1,-1,-1,-1,-1,-1,-1,-1,-1,-1,-1,-1,-1,-1,-1,-1,-1,-1,-1,-1,-1,-1,-1,-1,-1,-1],"split_conditions":[1.5404746E1,9E0,1.634124E1,1.362314E1,-1.667E1,-2.667E1,1.7014183E1,1E0,-4.167E1,1.464842E1,5.7E1,-6.25E1,4.474E1,-2.771E1,-2E1,2.0172E2,2.3E1,1.484513E1,1.4375127E1,-4.071E1,-5.833E1,4.082483E-1,6.931472E-1,-7.6E1,1.570258E1,1.5803385E1,1.2222E2,-6.667E1,1.875E1,-7E1,1.7453096E1,-4.388822E-2,-1.1205626E-2,-3.178793E-2,-1.8963525E-2,-3.0487696E-2,-1.6973129E-2,-1.7898602E-2,-6.265102E-3,-3.841648E-2,-2.7301623E-2,-2.9664649E-2,-1.1514939E-2,-7.7497796E-3,4.671575E-3,1.9866461E-2,1.3050282E-3,-2.3975499E-2,-9.324218E-3,-3.9241314E-3,3.8434884E-3,7.3370836E-3,1.4271054E-2,2.059495E-2,3.1842127E-2,5.8085498E-5,1.4345964E-2,2.2986416E-2,3.0901866E-2,-0E0,2.7519451E-2,3.46785E-2,4.5004062E-2],"split_indices":[0,34,0,0,29,29,0,7,29,0,24,29,29,29,29,29,2,0,0,29,29,32,4,29,0,0,29,29,29,29,0,0,0,0,0,0,0,0,0,0,0,0,0,0,0,0,0,0,0,0,0,0,0,0,0,0,0,0,0,0,0,0,0],"split_type":[0,0,0,0,0,0,0,0,0,0,0,0,0,0,0,0,0,0,0,0,0,0,0,0,0,0,0,0,0,0,0,0,0,0,0,0,0,0,0,0,0,0,0,0,0,0,0,0,0,0,0,0,0,0,0,0,0,0,0,0,0,0,0],"sum_hessian":[7.038E3,4.459E3,2.579E3,1.199E3,3.26E3,1.473E3,1.106E3,8.18E2,3.81E2,4.65E2,2.795E3,3.63E2,1.11E3,6.61E2,4.45E2,2.58E2,5.6E2,1.05E2,2.76E2,1.21E2,3.44E2,2.186E3,6.09E2,5E1,3.13E2,9.41E2,1.69E2,1.42E2,5.19E2,1.03E2,3.42E2,2.45E2,1.3E1,3.01E2,2.59E2,6.9E1,3.6E1,1.12E2,1.64E2,4.4E1,7.7E1,5.7E1,2.87E2,1.674E3,5.12E2,2.79E2,3.3E2,2.4E1,2.6E1,1.3E2,1.83E2,4.75E2,4.66E2,1.2E2,4.9E1,1.5E1,1.27E2,3.87E2,1.32E2,5E0,9.8E1,1.93E2,1.49E2],"tree_param":{"num_deleted":"0","num_feature":"41","num_nodes":"63","size_leaf_vector":"1"}},{"base_weights":[9.134693E-3,-2.5495696E-1,6.808603E-1,-7.8642106E-1,-6.765535E-2,5.189219E-1,1.1394771E0,-9.467937E-1,-2.9553124E-1,-4.262614E-4,-6.080255E-1,1.5728782E-1,6.2742734E-1,1.0304414E0,4.2911563E-2,-1.1616873E0,-7.3397696E-1,-6.1218274E-1,-1.0116618E-1,-9.9701285E-2,3.6098647E-1,-8.509448E-1,-2.980548E-1,-1.40908575E-2,3.3686224E-1,4.783696E-1,7.811454E-1,7.85644E-1,1.1538614E0,-4.2029455E-2,-2.7532874E-2,-1.5514778E-2,-2.998002E-2,-3.271757E-2,-1.4442897E-2,-6.672869E-3,3.0381673E-3,-6.12159E-3,5.4389215E-3,6.8615833E-3,2.546029E-2,-1.7679943E-2,-3.0914214E-2,-2.6036872E-2,-3.451621E-3,-1.3536194E-2,2.034563E-3,1.6081252E-3,1.2349808E-2,1.139811E-2,2.091476E-2,2.158666E-2,3.1482633E-2,1.3970089E-3,2.4455778E-2,3.198132E-2,4.059376E-2],"categories":[],"categories_nodes":[],"categories_segments":[],"categories_sizes":[],"default_left":[0,0,0,0,0,0,0,0,0,0,0,0,0,0,0,0,0,0,0,0,0,0,0,0,0,0,0,0,0,0,0,0,0,0,0,0,0,0,0,0,0,0,0,0,0,0,0,0,0,0,0,0,0,0,0,0,0],"id":22,"left_children":[1,3,5,7,9,11,13,15,17,19,21,23,25,27,-1,29,31,33,35,37,39,41,43,45,47,49,51,53,55,-1,-1,-1,-1,-1,-1,-1,-1,-1,-1,-1,-1,-1,-1,-1,-1,-1,-1,-1,-1,-1,-1,-1,-1,-1,-1,-1,-1],"loss_changes":[1.24642E3,5.0136774E2,1.4526099E2,1.0218555E2,1.3523724E2,5.709198E1,1.2157227E1,4.2531067E1,1.9644999E1,1.1909635E2,2.9940964E1,1.0726781E1,2.4491547E1,8.788727E0,0E0,2.469519E1,2.7147797E1,5.857876E0,5.16257E0,7.6558945E1,4.5194366E1,8.731018E0,1.8600863E1,6.5543947E0,3.3038616E0,1.1422562E1,6.709503E0,2.463272E0,2.6263428E-1,0E0,0E0,0E0,0E0,0E0,0E0,0E0,0E0,0E0,0E0,0E0,0E0,0E0,0E0,0E0,0E0,0E0,0E0,0E0,0E0,0E0,0E0,0E0,0E0,0E0,0E0,0E0,0E0],"parents":[2147483647,0,0,1,1,2,2,3,3,4,4,5,5,6,6,7,7,8,8,9,9,10,10,11,11,12,12,13,13,15,15,16,16,17,17,18,18,19,19,20,20,21,21,22,22,23,23,24,24,25,25,26,26,27,27,28,28],"right_children":[2,4,6,8,10,12,14,16,18,20,22,24,26,28,-1,30,32,34,36,38,40,42,44,46,48,50,52,54,56,-1,-1,-1,-1,-1,-1,-1,-1,-1,-1,-1,-1,-1,-1,-1,-1,-1,-1,-1,-1,-1,-1,-1,-1,-1,-1,-1,-1],"split_conditions":[1.5761421E1,1E1,1.6835936E1,1.4285515E1,3.3E1,-2.771E1,1.7516813E1,2.3E1,-3.913E1,5.7E1,1.4557448E1,1.6142788E1,1.6235878E1,-1.333E1,4.2911563E-2,-7E0,1.0126671E1,-7E1,1.5096445E1,-3E0,8.121356E-2,-8E0,-5.429E1,-6.25E1,-5.429E1,1.667E1,3.75E1,-6.667E1,2.5E1,-4.2029455E-2,-2.7532874E-2,-1.5514778E-2,-2.998002E-2,-3.271757E-2,-1.4442897E-2,-6.672869E-3,3.0381673E-3,-6.12159E-3,5.4389215E-3,6.8615833E-3,2.546029E-2,-1.7679943E-2,-3.0914214E-2,-2.6036872E-2,-3.451621E-3,-1.3536194E-2,2.034563E-3,1.6081252E-3,1.2349808E-2,1.139811E-2,2.091476E-2,2.158666E-2,3.1482633E-2,1.3970089E-3,2.4455778E-2,3.198132E-2,4.059376E-2],"split_indices":[0,34,0,0,2,29,0,2,29,24,0,0,0,29,0,30,0,29,0,30,20,30,29,29,29,29,29,29,29,0,0,0,0,0,0,0,0,0,0,0,0,0,0,0,0,0,0,0,0,0,0,0,0,0,0,0,0],"split_type":[0,0,0,0,0,0,0,0,0,0,0,0,0,0,0,0,0,0,0,0,0,0,0,0,0,0,0,0,0,0,0,0,0,0,0,0,0,0,0,0,0,0,0,0,0,0,0,0,0,0,0,0,0,0,0,0,0],"sum_hessian":[7.021E3,5.04E3,1.981E3,1.311E3,3.729E3,1.468E3,5.13E2,9.86E2,3.25E2,3.319E3,4.1E2,3.41E2,1.127E3,3.81E2,1.32E2,4.85E2,5.01E2,1.21E2,2.04E2,2.606E3,7.13E2,2.27E2,1.83E2,1.74E2,1.67E2,5.78E2,5.49E2,1.34E2,2.47E2,2.39E2,2.46E2,2.8E2,2.21E2,2.2E1,9.9E1,1.29E2,7.5E1,1.902E3,7.04E2,5.64E2,1.49E2,9.7E1,1.3E2,4.2E1,1.41E2,2.7E1,1.47E2,3.7E1,1.3E2,4.04E2,1.74E2,4.54E2,9.5E1,6E0,1.28E2,1.82E2,6.5E1],"tree_param":{"num_deleted":"0","num_feature":"41","num_nodes":"57","size_leaf_vector":"1"}},{"base_weights":[3.1951068E-3,-2.8734827E-1,5.903156E-1,-7.6622814E-1,-1.0253728E-1,3.4847063E-1,9.3130225E-1,-9.091286E-1,-2.9998782E-1,-1.8399031E-1,3.5999176E-1,-6.2428873E-2,4.4658422E-1,7.253341E-1,1.1476036E0,-1.2385991E0,-7.562446E-1,-5.1522464E-1,-1.9544251E-2,-2.6432005E-1,2.1491869E-1,6.948107E-1,1.1515547E-1,-5.116355E-1,4.6560936E-2,3.4838548E-1,6.923352E-1,3.2085496E-1,7.9010445E-1,1.0434872E0,4.427012E-2,-4.142267E-2,-2.3629768E-2,-2.9694336E-2,-1.7257951E-2,-3.0166926E-2,-1.308791E-2,-4.3095076E-3,4.81801E-3,-1.0939375E-2,1.0173838E-3,1.4824767E-2,-9.742456E-3,1.0756151E-2,2.979583E-2,6.4613335E-3,-1.0787067E-2,-2.2461472E-2,-7.898786E-3,-2.2335907E-3,5.5334694E-3,7.3553906E-3,1.4078545E-2,1.8543497E-2,2.8814174E-2,-4.02221E-3,1.0948602E-2,2.1008931E-2,2.8059106E-2,2.5054997E-2,3.6272008E-2],"categories":[],"categories_nodes":[],"categories_segments":[],"categories_sizes":[],"default_left":[0,0,0,0,0,0,0,0,0,0,0,0,0,0,0,0,0,0,0,0,0,0,0,0,0,0,0,0,0,0,0,0,0,0,0,0,0,0,0,0,0,0,0,0,0,0,0,0,0,0,0,0,0,0,0,0,0,0,0,0,0],"id":23,"left_children":[1,3,5,7,9,11,13,15,17,19,21,23,25,27,29,31,33,35,37,39,41,43,45,47,49,51,53,55,57,59,-1,-1,-1,-1,-1,-1,-1,-1,-1,-1,-1,-1,-1,-1,-1,-1,-1,-1,-1,-1,-1,-1,-1,-1,-1,-1,-1,-1,-1,-1,-1],"loss_changes":[1.2082252E3,4.1864368E2,1.9209357E2,8.6663025E1,1.2892857E2,5.572104E1,4.065796E1,4.7852478E1,1.8605717E1,9.341915E1,4.140661E1,1.330326E1,2.5832504E1,1.2141388E1,1.1680481E1,1.6933472E1,2.7414642E1,5.2160187E0,3.1452923E0,7.274719E1,7.3945694E1,2.0184647E1,1.4308604E1,2.2202215E0,3.6700354E0,9.394661E0,4.2721863E0,1.6978626E0,3.5054321E0,9.514038E0,0E0,0E0,0E0,0E0,0E0,0E0,0E0,0E0,0E0,0E0,0E0,0E0,0E0,0E0,0E0,0E0,0E0,0E0,0E0,0E0,0E0,0E0,0E0,0E0,0E0,0E0,0E0,0E0,0E0,0E0,0E0],"parents":[2147483647,0,0,1,1,2,2,3,3,4,4,5,5,6,6,7,7,8,8,9,9,10,10,11,11,12,12,13,13,14,14,15,15,16,16,17,17,18,18,19,19,20,20,21,21,22,22,23,23,24,24,25,25,26,26,27,27,28,28,29,29],"right_children":[2,4,6,8,10,12,14,16,18,20,22,24,26,28,30,32,34,36,38,40,42,44,46,48,50,52,54,56,58,60,-1,-1,-1,-1,-1,-1,-1,-1,-1,-1,-1,-1,-1,-1,-1,-1,-1,-1,-1,-1,-1,-1,-1,-1,-1,-1,-1,-1,-1,-1,-1],"split_conditions":[1.5483217E1,1E1,1.6503359E1,1.4285515E1,4.7482872E-1,-3.25E1,1.6972511E1,1E0,-2.2222221E1,-1E0,6.931472E-1,-6.25E1,1.7647058E1,-3.548387E1,1.7686712E1,1.2899222E1,2E0,-7E1,1.5009434E1,1.5009434E1,2.9E1,5.869527E-1,3.2E1,-7.6E1,1.5919645E1,1.5919645E1,1E2,-7E1,4.5454545E0,-5.882353E0,4.427012E-2,-4.142267E-2,-2.3629768E-2,-2.9694336E-2,-1.7257951E-2,-3.0166926E-2,-1.308791E-2,-4.3095076E-3,4.81801E-3,-1.0939375E-2,1.0173838E-3,1.4824767E-2,-9.742456E-3,1.0756151E-2,2.979583E-2,6.4613335E-3,-1.0787067E-2,-2.2461472E-2,-7.898786E-3,-2.2335907E-3,5.5334694E-3,7.3553906E-3,1.4078545E-2,1.8543497E-2,2.8814174E-2,-4.02221E-3,1.0948602E-2,2.1008931E-2,2.8059106E-2,2.5054997E-2,3.6272008E-2],"split_indices":[0,34,0,0,32,1,0,7,1,30,4,1,1,1,0,0,13,1,0,0,2,32,2,1,0,0,1,1,1,1,0,0,0,0,0,0,0,0,0,0,0,0,0,0,0,0,0,0,0,0,0,0,0,0,0,0,0,0,0,0,0],"split_type":[0,0,0,0,0,0,0,0,0,0,0,0,0,0,0,0,0,0,0,0,0,0,0,0,0,0,0,0,0,0,0,0,0,0,0,0,0,0,0,0,0,0,0,0,0,0,0,0,0,0,0,0,0,0,0,0,0,0,0,0,0],"sum_hessian":[7.078E3,4.735E3,2.343E3,1.316E3,3.419E3,1.374E3,9.69E2,1.005E3,3.11E2,2.909E3,5.1E2,2.64E2,1.11E3,5.02E2,4.67E2,3.13E2,6.92E2,1.74E2,1.37E2,2.423E3,4.86E2,2.13E2,2.97E2,5.1E1,2.13E2,7.98E2,3.12E2,7.2E1,4.3E2,3.62E2,1.05E2,2.34E2,7.9E1,2.97E2,3.95E2,2E1,1.54E2,8.3E1,5.4E1,1.814E3,6.09E2,3.21E2,1.65E2,1.03E2,1.1E2,2.47E2,5E1,2.3E1,2.8E1,1.12E2,1.01E2,4.36E2,3.62E2,2.51E2,6.1E1,5E0,6.7E1,2.75E2,1.55E2,1.67E2,1.95E2],"tree_param":{"num_deleted":"0","num_feature":"41","num_nodes":"61","size_leaf_vector":"1"}},{"base_weights":[-1.7584002E-3,-3.0499664E-1,5.327661E-1,-7.9088634E-1,-1.19568504E-1,2.9939446E-1,8.7866974E-1,-9.4351375E-1,-4.465274E-1,-1.2587749E-2,-5.142673E-1,7.977655E-2,4.692964E-1,7.040811E-1,1.1140487E0,-1.13317E0,-6.334051E-1,-2.9690214E-2,-3.6180818E-1,-9.442147E-2,5.4528236E-1,-3.608632E-1,-7.5834024E-1,-2.3424625E-1,1.6869012E-1,4.176486E-1,2.5944099E-2,5.121597E-1,8.307915E-1,6.4928824E-1,1.1703202E0,-3.449258E-2,6.3583057E-4,-1.4407394E-2,-3.2147817E-2,-1.2780693E-2,2.9282207E-3,-6.8262746E-3,4.441929E-3,5.8933245E-3,2.9636795E-2,-2.218439E-2,-8.677501E-3,-2.7516834E-2,-1.2421115E-2,-1.874942E-2,-3.828095E-3,1.46763E-3,8.853511E-3,9.744787E-3,1.7318029E-2,4.268717E-3,1.664283E-2,2.3248004E-2,3.193719E-2,-0E0,2.131248E-2,3.279806E-2,4.635913E-2],"categories":[],"categories_nodes":[],"categories_segments":[],"categories_sizes":[],"default_left":[0,0,0,0,0,0,0,0,0,0,0,0,0,0,0,0,0,0,0,0,0,0,0,0,0,0,0,0,0,0,0,0,0,0,0,0,0,0,0,0,0,0,0,0,0,0,0,0,0,0,0,0,0,0,0,0,0,0,0],"id":24,"left_children":[1,3,5,7,9,11,13,15,17,19,21,23,25,27,29,31,33,-1,35,37,39,41,43,45,47,49,-1,51,53,55,57,-1,-1,-1,-1,-1,-1,-1,-1,-1,-1,-1,-1,-1,-1,-1,-1,-1,-1,-1,-1,-1,-1,-1,-1,-1,-1,-1,-1],"loss_changes":[1.1393674E3,4.0353357E2,2.0424695E2,6.352997E1,1.3695546E2,5.6479065E1,3.956183E1,4.7967285E1,1.632386E1,1.1674816E2,2.4802795E1,1.8697407E1,1.6142395E1,1.2922699E1,8.842346E0,1.0700989E1,2.0341904E1,0E0,1.0189327E1,7.2252815E1,4.950836E1,1.0716835E1,1.3017075E1,5.589571E0,7.7183943E0,1.0478699E1,0E0,3.3225288E0,2.039978E0,1.7985649E0,6.3101196E0,0E0,0E0,0E0,0E0,0E0,0E0,0E0,0E0,0E0,0E0,0E0,0E0,0E0,0E0,0E0,0E0,0E0,0E0,0E0,0E0,0E0,0E0,0E0,0E0,0E0,0E0,0E0,0E0],"parents":[2147483647,0,0,1,1,2,2,3,3,4,4,5,5,6,6,7,7,8,8,9,9,10,10,11,11,12,12,13,13,14,14,15,15,16,16,18,18,19,19,20,20,21,21,22,22,23,23,24,24,25,25,27,27,28,28,29,29,30,30],"right_children":[2,4,6,8,10,12,14,16,18,20,22,24,26,28,30,32,34,-1,36,38,40,42,44,46,48,50,-1,52,54,56,58,-1,-1,-1,-1,-1,-1,-1,-1,-1,-1,-1,-1,-1,-1,-1,-1,-1,-1,-1,-1,-1,-1,-1,-1,-1,-1,-1,-1],"split_conditions":[1.5404746E1,9E0,1.64182E1,1.362314E1,3.1E1,-9.09E0,1.7034386E1,3E0,-5.714E1,6.6E1,3.4E1,-4.615E1,7.333E1,-1.026E1,-3.478E1,9.1E1,2.625E3,-2.9690214E-2,5.26E0,2.7E1,2.3E1,-3.913E1,1.4557448E1,-7E1,1.5856731E1,1.5967273E1,2.5944099E-2,-5E1,4.474E1,-6.667E1,1.7909855E1,-3.449258E-2,6.3583057E-4,-1.4407394E-2,-3.2147817E-2,-1.2780693E-2,2.9282207E-3,-6.8262746E-3,4.441929E-3,5.8933245E-3,2.9636795E-2,-2.218439E-2,-8.677501E-3,-2.7516834E-2,-1.2421115E-2,-1.874942E-2,-3.828095E-3,1.46763E-3,8.853511E-3,9.744787E-3,1.7318029E-2,4.268717E-3,1.664283E-2,2.3248004E-2,3.193719E-2,-0E0,2.131248E-2,3.279806E-2,4.635913E-2],"split_indices":[0,34,0,0,2,29,0,13,29,24,2,29,29,29,29,24,8,0,29,13,13,29,0,29,0,0,0,29,29,29,0,0,0,0,0,0,0,0,0,0,0,0,0,0,0,0,0,0,0,0,0,0,0,0,0,0,0,0,0],"split_type":[0,0,0,0,0,0,0,0,0,0,0,0,0,0,0,0,0,0,0,0,0,0,0,0,0,0,0,0,0,0,0,0,0,0,0,0,0,0,0,0,0,0,0,0,0,0,0,0,0,0,0,0,0,0,0,0,0,0,0],"sum_hessian":[7.026E3,4.484E3,2.542E3,1.236E3,3.248E3,1.521E3,1.021E3,8.53E2,3.83E2,2.558E3,6.9E2,6.66E2,8.55E2,5.92E2,4.29E2,5.25E2,3.28E2,4.8E1,3.35E2,2.233E3,3.25E2,4.28E2,2.62E2,1.45E2,5.21E2,7.61E2,9.4E1,2.41E2,3.51E2,5E1,3.79E2,5.18E2,7E0,2.47E2,8.1E1,2.95E2,4E1,1.443E3,7.9E2,1.84E2,1.41E2,6.4E1,3.64E2,1.76E2,8.6E1,2.8E1,1.17E2,2.71E2,2.5E2,4.87E2,2.74E2,2.7E1,2.14E2,2.92E2,5.9E1,5E0,4.5E1,3.22E2,5.7E1],"tree_param":{"num_deleted":"0","num_feature":"41","num_nodes":"59","size_leaf_vector":"1"}},{"base_weights":[-6.187929E-3,-3.225155E-1,4.9012628E-1,-6.671335E-1,-6.731664E-2,2.3734541E-1,8.031327E-1,-7.6434666E-1,-2.7057102E-1,-1.6707352E-1,4.666872E-1,-1.5804504E-1,3.4990612E-1,6.31448E-1,1.0603878E0,-1.0688595E0,-6.189061E-1,-5.76223E-1,-8.316726E-2,-2.5121245E-1,3.1680122E-1,8.4248143E-1,-4.4664023E-3,-6.2189597E-1,-5.5367086E-2,2.5236058E-1,5.881061E-1,2.901776E-1,7.1222544E-1,7.6335686E-1,1.155714E0,-3.6418814E-2,-1.8181533E-2,-2.099089E-2,-1.4960635E-3,-2.5982529E-2,-1.3399578E-2,-4.387181E-3,5.319175E-3,-1.0269621E-2,5.4812874E-4,1.7150626E-2,-1.0333227E-3,-6.7914478E-3,2.7125452E-2,-3.0729386E-3,2.8334724E-2,-2.4834799E-2,-1.1642533E-2,-4.309275E-3,2.4729823E-3,5.302379E-3,1.089772E-2,1.4377743E-2,2.4375493E-2,1.099738E-3,1.0774222E-2,1.9964287E-2,2.9831931E-2,-0E0,2.395194E-2,3.0777572E-2,3.9970804E-2],"categories":[],"categories_nodes":[],"categories_segments":[],"categories_sizes":[],"default_left":[0,0,0,0,0,0,0,0,0,0,0,0,0,0,0,0,0,0,0,0,0,0,0,0,0,0,0,0,0,0,0,0,0,0,0,0,0,0,0,0,0,0,0,0,0,0,0,0,0,0,0,0,0,0,0,0,0,0,0,0,0,0,0],"id":25,"left_children":[1,3,5,7,9,11,13,15,17,19,21,23,25,27,29,31,33,35,37,39,41,43,45,47,49,51,53,55,57,59,61,-1,-1,-1,-1,-1,-1,-1,-1,-1,-1,-1,-1,-1,-1,-1,-1,-1,-1,-1,-1,-1,-1,-1,-1,-1,-1,-1,-1,-1,-1,-1,-1],"loss_changes":[1.1048694E3,3.7762338E2,2.1581372E2,6.954028E1,1.3174423E2,6.781029E1,5.1786743E1,6.276001E1,2.04245E1,8.505307E1,6.930162E1,1.5642892E1,2.679358E1,1.9457428E1,1.1008728E1,2.918097E1,4.5436157E1,3.7153206E0,3.79847E0,4.3852844E1,2.797204E1,1.5059235E1,1.5948281E1,1.6384487E0,3.4481368E0,6.6872673E0,6.904785E0,2.3283634E0,5.6953735E0,3.0160751E0,4.386902E0,0E0,0E0,0E0,0E0,0E0,0E0,0E0,0E0,0E0,0E0,0E0,0E0,0E0,0E0,0E0,0E0,0E0,0E0,0E0,0E0,0E0,0E0,0E0,0E0,0E0,0E0,0E0,0E0,0E0,0E0,0E0,0E0],"parents":[2147483647,0,0,1,1,2,2,3,3,4,4,5,5,6,6,7,7,8,8,9,9,10,10,11,11,12,12,13,13,14,14,15,15,16,16,17,17,18,18,19,19,20,20,21,21,22,22,23,23,24,24,25,25,26,26,27,27,28,28,29,29,30,30],"right_children":[2,4,6,8,10,12,14,16,18,20,22,24,26,28,30,32,34,36,38,40,42,44,46,48,50,52,54,56,58,60,62,-1,-1,-1,-1,-1,-1,-1,-1,-1,-1,-1,-1,-1,-1,-1,-1,-1,-1,-1,-1,-1,-1,-1,-1,-1,-1,-1,-1,-1,-1,-1,-1],"split_conditions":[1.5274126E1,1.2E1,1.6249125E1,1.4603969E1,-1E0,-2.9411764E1,1.6920097E1,2E0,-3.25E1,5.9E1,2.7E1,-6.25E1,1.7647058E1,-3.25E1,-2E1,1.352783E1,6.9E1,-5.9090908E1,1E1,1.6129032E-1,1.0126671E1,6.1590953E0,5.345225E-1,-7.6E1,1.5775605E1,1.5803385E1,7.2413795E1,-5.7142857E1,4.5454544E1,-6.6666664E1,1.7412823E1,-3.6418814E-2,-1.8181533E-2,-2.099089E-2,-1.4960635E-3,-2.5982529E-2,-1.3399578E-2,-4.387181E-3,5.319175E-3,-1.0269621E-2,5.4812874E-4,1.7150626E-2,-1.0333227E-3,-6.7914478E-3,2.7125452E-2,-3.0729386E-3,2.8334724E-2,-2.4834799E-2,-1.1642533E-2,-4.309275E-3,2.4729823E-3,5.302379E-3,1.089772E-2,1.4377743E-2,2.4375493E-2,1.099738E-3,1.0774222E-2,1.9964287E-2,2.9831931E-2,-0E0,2.395194E-2,3.0777572E-2,3.9970804E-2],"split_indices":[0,13,0,0,30,1,0,13,1,24,2,1,1,1,1,0,24,1,1,31,0,11,32,1,0,0,1,1,1,1,0,0,0,0,0,0,0,0,0,0,0,0,0,0,0,0,0,0,0,0,0,0,0,0,0,0,0,0,0,0,0,0,0],"split_type":[0,0,0,0,0,0,0,0,0,0,0,0,0,0,0,0,0,0,0,0,0,0,0,0,0,0,0,0,0,0,0,0,0,0,0,0,0,0,0,0,0,0,0,0,0,0,0,0,0,0,0,0,0,0,0,0,0,0,0,0,0,0,0],"sum_hessian":[7.034E3,4.297E3,2.737E3,1.826E3,2.471E3,1.517E3,1.22E3,1.464E3,3.62E2,2.084E3,3.87E2,3.35E2,1.182E3,7.37E2,4.83E2,4.68E2,9.96E2,1.35E2,2.27E2,1.777E3,3.07E2,2.15E2,1.72E2,5.8E1,2.77E2,8.43E2,3.39E2,1.44E2,5.93E2,1.23E2,3.6E2,3.53E2,1.15E2,8.71E2,1.25E2,3.7E1,9.8E1,1.85E2,4.2E1,1.329E3,4.48E2,1.78E2,1.29E2,1.1E1,2.04E2,1.58E2,1.4E1,2.7E1,3.1E1,1.71E2,1.06E2,5.07E2,3.36E2,2.34E2,1.05E2,3.3E1,1.11E2,5.16E2,7.7E1,6E0,1.17E2,2.17E2,1.43E2],"tree_param":{"num_deleted":"0","num_feature":"41","num_nodes":"63","size_leaf_vector":"1"}},{"base_weights":[1.532275E-3,-3.0966133E-1,4.7687846E-1,-6.532354E-1,-5.9335005E-2,2.2852378E-1,7.875522E-1,-9.466735E-1,-5.2374756E-1,-1.5881753E-1,4.3140557E-1,-1.8474042E-1,3.3154213E-1,6.304571E-1,1.0542647E0,-1.1925652E0,-3.7770742E-1,-6.312652E-1,-2.2754996E-1,-2.6889053E-1,1.9004749E-1,6.967197E-1,-8.4961995E-2,-2.2906264E-2,-1.0846772E-1,2.4272755E-1,5.5920124E-1,4.1768673E-1,7.4601334E-1,9.7841585E-1,4.3460645E-2,-4.542685E-2,-3.1385195E-2,-1.3959385E-2,4.9760374E-3,-2.1776827E-2,-8.029252E-3,2.6182563E-3,-1.4510722E-2,-9.422432E-3,1.1778747E-2,1.301901E-2,-6.8232445E-3,-2.7708963E-3,2.2639515E-2,-1.4363605E-2,1.1658257E-2,-6.155478E-3,9.331201E-4,5.065521E-3,1.0597947E-2,1.3709907E-2,2.3409536E-2,2.0512643E-3,1.3842712E-2,2.114999E-2,3.0853903E-2,2.2898206E-2,3.3709973E-2],"categories":[],"categories_nodes":[],"categories_segments":[],"categories_sizes":[],"default_left":[0,0,0,0,0,0,0,0,0,0,0,0,0,0,0,0,0,0,0,0,0,0,0,0,0,0,0,0,0,0,0,0,0,0,0,0,0,0,0,0,0,0,0,0,0,0,0,0,0,0,0,0,0,0,0,0,0,0,0],"id":26,"left_children":[1,3,5,7,9,11,13,15,17,19,21,23,25,27,29,31,33,35,37,39,41,43,45,-1,47,49,51,53,55,57,-1,-1,-1,-1,-1,-1,-1,-1,-1,-1,-1,-1,-1,-1,-1,-1,-1,-1,-1,-1,-1,-1,-1,-1,-1,-1,-1,-1,-1],"loss_changes":[1.041473E3,3.6543414E2,2.1409222E2,6.636316E1,1.2029349E2,6.6270454E1,4.9615723E1,7.4561615E1,3.905957E1,7.890129E1,5.7279106E1,1.3083855E1,2.448056E1,1.8071136E1,9.533752E0,1.3398254E1,8.30427E0,3.0564789E1,2.7458172E1,4.6872276E1,5.0402855E1,1.3041428E1,2.6900757E1,0E0,3.8389325E0,6.969181E0,6.487419E0,3.9803505E0,3.5216064E0,9.465942E0,0E0,0E0,0E0,0E0,0E0,0E0,0E0,0E0,0E0,0E0,0E0,0E0,0E0,0E0,0E0,0E0,0E0,0E0,0E0,0E0,0E0,0E0,0E0,0E0,0E0,0E0,0E0,0E0,0E0],"parents":[2147483647,0,0,1,1,2,2,3,3,4,4,5,5,6,6,7,7,8,8,9,9,10,10,11,11,12,12,13,13,14,14,15,15,16,16,17,17,18,18,19,19,20,20,21,21,22,22,24,24,25,25,26,26,27,27,28,28,29,29],"right_children":[2,4,6,8,10,12,14,16,18,20,22,24,26,28,30,32,34,36,38,40,42,44,46,-1,48,50,52,54,56,58,-1,-1,-1,-1,-1,-1,-1,-1,-1,-1,-1,-1,-1,-1,-1,-1,-1,-1,-1,-1,-1,-1,-1,-1,-1,-1,-1,-1,-1],"split_conditions":[1.5319588E1,1.724E0,1.6235878E1,2E0,5.9E1,-3.25E1,1.7034386E1,1.362314E1,-3E0,-3E0,1.1695255E1,-7E1,1.7647058E1,-1.3636364E1,1.7909855E1,-7E0,2.2727273E0,1.469098E1,6.931472E-1,3.478261E-1,2.9E1,4.9415205E-2,4.2857143E1,-2.2906264E-2,1.5775605E1,1.5803385E1,7.2413795E1,-5.4545456E1,5.3846153E1,-1.0526316E1,4.3460645E-2,-4.542685E-2,-3.1385195E-2,-1.3959385E-2,4.9760374E-3,-2.1776827E-2,-8.029252E-3,2.6182563E-3,-1.4510722E-2,-9.422432E-3,1.1778747E-2,1.301901E-2,-6.8232445E-3,-2.7708963E-3,2.2639515E-2,-1.4363605E-2,